<?xml version="1.0"?>
<opencv_storage>
<opencv_ml_svm>
  <format>3</format>
  <svmType>C_SVC</svmType>
  <kernel>
    <type>POLY</type>
    <degree>5.0000000000000000e-01</degree>
    <gamma>1.</gamma>
    <coef0>1.</coef0></kernel>
  <C>1.</C>
  <term_criteria><iterations>100</iterations></term_criteria>
  <var_count>1200</var_count>
  <class_count>2</class_count>
  <class_labels type_id="opencv-matrix">
    <rows>2</rows>
    <cols>1</cols>
    <dt>i</dt>
    <data>
      0 1</data></class_labels>
  <sv_total>19</sv_total>
  <support_vectors>
    <_>
      0. 0. 0. 0. 0. 0. 0. 0. 0. 0. 0. 0. 0. 0. 0. 0. 0. 0. 0. 0. 0. 0.
      0. 0. 1. 1. 1. 0. 0. 0. 3. 3. 3. 0. 0. 0. 2. 2. 2. 0. 0. 0. 0. 0.
      0. 1. 1. 1. 0. 0. 0. 0. 0. 0. 0. 0. 0. 0. 0. 0. 0. 0. 0. 0. 0. 0.
      0. 0. 0. 0. 0. 0. 0. 0. 0. 0. 0. 0. 0. 0. 0. 0. 0. 0. 0. 0. 0. 0.
      0. 0. 0. 0. 0. 1. 1. 1. 2. 2. 2. 0. 0. 0. 0. 0. 0. 0. 0. 0. 0. 0.
      0. 0. 0. 0. 0. 0. 0. 0. 0. 0. 0. 0. 0. 0. 0. 0. 0. 0. 0. 0. 0. 0.
      0. 0. 0. 0. 0. 0. 0. 0. 0. 0. 0. 0. 4. 4. 4. 0. 0. 0. 0. 0. 0. 0.
      0. 0. 0. 0. 0. 0. 0. 0. 0. 0. 0. 2. 2. 2. 0. 0. 0. 0. 0. 0. 0. 0.
      0. 0. 0. 0. 0. 0. 0. 0. 0. 0. 0. 0. 0. 0. 0. 0. 0. 0. 0. 0. 0. 0.
      0. 0. 0. 0. 0. 0. 0. 0. 0. 3. 3. 3. 0. 0. 0. 0. 0. 0. 0. 0. 0. 64.
      64. 64. 32. 32. 32. 0. 0. 0. 0. 0. 0. 0. 0. 0. 0. 0. 0. 0. 0. 0.
      0. 0. 0. 0. 0. 0. 0. 0. 0. 0. 0. 0. 0. 0. 0. 0. 0. 0. 0. 0. 0. 0.
      0. 0. 3. 3. 3. 1. 1. 1. 2. 2. 2. 3. 3. 3. 92. 92. 92. 240. 240.
      240. 101. 101. 101. 2. 2. 2. 0. 0. 0. 0. 0. 0. 0. 0. 0. 0. 0. 0.
      0. 0. 0. 0. 0. 0. 0. 0. 0. 0. 0. 0. 0. 0. 0. 0. 0. 0. 0. 0. 0. 0.
      0. 0. 0. 0. 0. 0. 0. 0. 0. 0. 0. 47. 47. 47. 227. 227. 227. 241.
      241. 241. 50. 50. 50. 0. 0. 0. 0. 0. 0. 0. 0. 0. 0. 0. 0. 0. 0. 0.
      0. 0. 0. 0. 0. 0. 0. 0. 0. 0. 0. 0. 0. 0. 0. 0. 0. 0. 0. 0. 0. 0.
      0. 0. 1. 1. 1. 0. 0. 0. 31. 31. 31. 189. 189. 189. 254. 254. 254.
      115. 115. 115. 0. 0. 0. 3. 3. 3. 0. 0. 0. 0. 0. 0. 0. 0. 0. 0. 0.
      0. 0. 0. 0. 0. 0. 0. 0. 0. 0. 0. 0. 0. 0. 0. 0. 0. 0. 0. 0. 0. 0.
      0. 0. 0. 0. 0. 0. 19. 19. 19. 176. 176. 176. 255. 255. 255. 217.
      217. 217. 16. 16. 16. 2. 2. 2. 0. 0. 0. 0. 0. 0. 0. 0. 0. 0. 0. 0.
      0. 0. 0. 1. 1. 1. 0. 0. 0. 0. 0. 0. 0. 0. 0. 1. 1. 1. 1. 1. 1. 0.
      0. 0. 2. 2. 2. 0. 0. 0. 155. 155. 155. 255. 255. 255. 255. 255.
      255. 153. 153. 153. 0. 0. 0. 0. 0. 0. 0. 0. 0. 0. 0. 0. 0. 0. 0.
      0. 0. 0. 0. 0. 0. 0. 0. 0. 0. 0. 0. 3. 3. 3. 0. 0. 0. 1. 1. 1. 0.
      0. 0. 0. 0. 0. 14. 14. 14. 156. 156. 156. 241. 241. 241. 224. 224.
      224. 255. 255. 255. 123. 123. 123. 0. 0. 0. 4. 4. 4. 0. 0. 0. 0.
      0. 0. 0. 0. 0. 0. 0. 0. 0. 0. 0. 0. 0. 0. 3. 3. 3. 0. 0. 0. 0. 0.
      0. 1. 1. 1. 0. 0. 0. 47. 47. 47. 180. 180. 180. 227. 227. 227. 88.
      88. 88. 173. 173. 173. 225. 225. 225. 25. 25. 25. 3. 3. 3. 0. 0.
      0. 0. 0. 0. 0. 0. 0. 0. 0. 0. 0. 0. 0. 0. 0. 0. 0. 0. 0. 1. 1. 1.
      0. 0. 0. 0. 0. 0. 63. 63. 63. 171. 171. 171. 234. 234. 234. 206.
      206. 206. 57. 57. 57. 16. 16. 16. 225. 225. 225. 158. 158. 158. 4.
      4. 4. 3. 3. 3. 0. 0. 0. 5. 5. 5. 0. 0. 0. 0. 0. 0. 0. 0. 0. 0. 0.
      0. 0. 0. 0. 0. 0. 0. 3. 3. 3. 29. 29. 29. 192. 192. 192. 220. 220.
      220. 111. 111. 111. 20. 20. 20. 0. 0. 0. 111. 111. 111. 255. 255.
      255. 91. 91. 91. 1. 1. 1. 0. 0. 0. 0. 0. 0. 0. 0. 0. 0. 0. 0. 0.
      0. 0. 0. 0. 0. 0. 0. 0. 3. 3. 3. 0. 0. 0. 0. 0. 0. 0. 0. 0. 38.
      38. 38. 16. 16. 16. 0. 0. 0. 0. 0. 0. 6. 6. 6. 203. 203. 203. 206.
      206. 206. 24. 24. 24. 0. 0. 0. 0. 0. 0. 1. 1. 1. 0. 0. 0. 0. 0. 0.
      0. 0. 0. 0. 0. 0. 0. 0. 0. 0. 0. 0. 5. 5. 5. 0. 0. 0. 0. 0. 0. 0.
      0. 0. 0. 0. 0. 0. 0. 0. 1. 1. 1. 37. 37. 37. 228. 228. 228. 193.
      193. 193. 0. 0. 0. 1. 1. 1. 0. 0. 0. 2. 2. 2. 0. 0. 0. 0. 0. 0. 0.
      0. 0. 0. 0. 0. 0. 0. 0. 1. 1. 1. 0. 0. 0. 0. 0. 0. 0. 0. 0. 1. 1.
      1. 0. 0. 0. 1. 1. 1. 0. 0. 0. 63. 63. 63. 245. 245. 245. 191. 191.
      191. 0. 0. 0. 0. 0. 0. 0. 0. 0. 0. 0. 0. 1. 1. 1. 0. 0. 0. 0. 0.
      0. 0. 0. 0. 0. 0. 0. 0. 0. 0. 0. 0. 0. 0. 0. 0. 0. 0. 0. 0. 0. 0.
      0. 0. 0. 0. 0. 0. 0. 0. 0. 84. 84. 84. 255. 255. 255. 161. 161.
      161. 2. 2. 2. 0. 0. 0. 2. 2. 2. 0. 0. 0. 0. 0. 0. 0. 0. 0. 0. 0.
      0. 0. 0. 0. 0. 0. 0. 0. 0. 0. 0. 0. 0. 0. 0. 0. 0. 0. 0. 0. 0. 0.
      0. 0. 0. 0. 0. 0. 0. 0. 0. 24. 24. 24. 180. 180. 180. 117. 117.
      117. 2. 2. 2. 1. 1. 1. 0. 0. 0. 0. 0. 0. 0. 0. 0. 0. 0. 0. 0. 0.
      0. 0. 0. 0. 0. 0. 0. 0. 0. 0. 0. 0. 0. 0. 0. 0. 0. 0. 0. 0. 0. 0.
      0. 0. 0. 0. 0. 0. 0. 0. 0. 0. 0. 0. 4. 4. 4. 0. 0. 0. 0. 0. 0. 1.
      1. 1. 1. 1. 1. 0. 0. 0. 1. 1. 1. 0. 0. 0. 0. 0. 0. 0. 0. 0. 0. 0.
      0. 0. 0. 0. 0. 0. 0. 0. 0. 0. 0. 0. 0. 0. 0. 0. 0. 0. 0. 0. 0. 0.
      0. 0. 0. 2. 2. 2. 0. 0. 0. 0. 0. 0. 2. 2. 2. 0. 0. 0. 0. 0. 0. 1.
      1. 1. 0. 0. 0. 0. 0. 0. 0. 0. 0. 0. 0. 0. 0. 0. 0.</_>
    <_>
      0. 0. 0. 0. 0. 0. 0. 0. 0. 0. 0. 0. 0. 0. 0. 0. 0. 0. 0. 0. 0. 0.
      0. 0. 0. 0. 0. 2. 2. 2. 2. 2. 2. 0. 0. 0. 0. 0. 0. 1. 1. 1. 0. 0.
      0. 1. 1. 1. 1. 1. 1. 0. 0. 0. 3. 3. 3. 0. 0. 0. 0. 0. 0. 0. 0. 0.
      0. 0. 0. 0. 0. 0. 0. 0. 0. 0. 0. 0. 0. 0. 0. 0. 0. 0. 3. 3. 3. 0.
      0. 0. 0. 0. 0. 1. 1. 1. 0. 0. 0. 0. 0. 0. 0. 0. 0. 0. 0. 0. 0. 0.
      0. 1. 1. 1. 0. 0. 0. 3. 3. 3. 0. 0. 0. 0. 0. 0. 0. 0. 0. 0. 0. 0.
      0. 0. 0. 0. 0. 0. 0. 0. 0. 0. 0. 0. 0. 0. 0. 5. 5. 5. 0. 0. 0. 0.
      0. 0. 1. 1. 1. 1. 1. 1. 0. 0. 0. 0. 0. 0. 0. 0. 0. 0. 0. 0. 2. 2.
      2. 0. 0. 0. 0. 0. 0. 0. 0. 0. 0. 0. 0. 0. 0. 0. 0. 0. 0. 0. 0. 0.
      0. 0. 0. 0. 0. 0. 0. 0. 0. 0. 0. 0. 2. 2. 2. 4. 4. 4. 2. 2. 2. 0.
      0. 0. 1. 1. 1. 0. 0. 0. 2. 2. 2. 0. 0. 0. 0. 0. 0. 3. 3. 3. 0. 0.
      0. 0. 0. 0. 0. 0. 0. 0. 0. 0. 0. 0. 0. 0. 0. 0. 0. 0. 0. 0. 0. 0.
      1. 1. 1. 0. 0. 0. 0. 0. 0. 0. 0. 0. 0. 0. 0. 84. 84. 84. 166. 166.
      166. 148. 148. 148. 37. 37. 37. 0. 0. 0. 2. 2. 2. 0. 0. 0. 0. 0.
      0. 0. 0. 0. 0. 0. 0. 0. 0. 0. 0. 0. 0. 0. 0. 0. 0. 0. 0. 0. 0. 0.
      0. 0. 0. 2. 2. 2. 0. 0. 0. 1. 1. 1. 32. 32. 32. 195. 195. 195.
      255. 255. 255. 169. 169. 169. 49. 49. 49. 0. 0. 0. 0. 0. 0. 0. 0.
      0. 0. 0. 0. 0. 0. 0. 0. 0. 0. 0. 0. 0. 0. 0. 0. 0. 0. 0. 0. 0. 0.
      0. 0. 0. 3. 3. 3. 0. 0. 0. 0. 0. 0. 32. 32. 32. 188. 188. 188.
      255. 255. 255. 227. 227. 227. 16. 16. 16. 0. 0. 0. 2. 2. 2. 0. 0.
      0. 2. 2. 2. 0. 0. 0. 0. 0. 0. 0. 0. 0. 0. 0. 0. 0. 0. 0. 0. 0. 0.
      0. 0. 0. 0. 0. 0. 0. 0. 0. 1. 1. 1. 87. 87. 87. 199. 199. 199.
      255. 255. 255. 185. 185. 185. 59. 59. 59. 0. 0. 0. 0. 0. 0. 19.
      19. 19. 64. 64. 64. 0. 0. 0. 0. 0. 0. 2. 2. 2. 0. 0. 0. 3. 3. 3.
      0. 0. 0. 0. 0. 0. 4. 4. 4. 0. 0. 0. 0. 0. 0. 107. 107. 107. 247.
      247. 247. 253. 253. 253. 227. 227. 227. 60. 60. 60. 0. 0. 0. 1. 1.
      1. 0. 0. 0. 17. 17. 17. 53. 53. 53. 4. 4. 4. 0. 0. 0. 0. 0. 0. 1.
      1. 1. 2. 2. 2. 0. 0. 0. 4. 4. 4. 0. 0. 0. 0. 0. 0. 99. 99. 99.
      242. 242. 242. 255. 255. 255. 234. 234. 234. 74. 74. 74. 0. 0. 0.
      3. 3. 3. 0. 0. 0. 0. 0. 0. 0. 0. 0. 1. 1. 1. 0. 0. 0. 3. 3. 3. 0.
      0. 0. 0. 0. 0. 0. 0. 0. 1. 1. 1. 0. 0. 0. 1. 1. 1. 96. 96. 96.
      255. 255. 255. 255. 255. 255. 226. 226. 226. 60. 60. 60. 4. 4. 4.
      1. 1. 1. 0. 0. 0. 4. 4. 4. 1. 1. 1. 2. 2. 2. 0. 0. 0. 2. 2. 2. 0.
      0. 0. 4. 4. 4. 0. 0. 0. 0. 0. 0. 0. 0. 0. 1. 1. 1. 30. 30. 30.
      204. 204. 204. 251. 251. 251. 240. 240. 240. 73. 73. 73. 1. 1. 1.
      0. 0. 0. 0. 0. 0. 0. 0. 0. 0. 0. 0. 1. 1. 1. 0. 0. 0. 4. 4. 4. 0.
      0. 0. 1. 1. 1. 0. 0. 0. 3. 3. 3. 3. 3. 3. 0. 0. 0. 42. 42. 42.
      188. 188. 188. 255. 255. 255. 237. 237. 237. 127. 127. 127. 0. 0.
      0. 3. 3. 3. 0. 0. 0. 3. 3. 3. 1. 1. 1. 0. 0. 0. 0. 0. 0. 0. 0. 0.
      0. 0. 0. 0. 0. 0. 0. 0. 0. 1. 1. 1. 0. 0. 0. 0. 0. 0. 102. 102.
      102. 226. 226. 226. 255. 255. 255. 254. 254. 254. 143. 143. 143.
      5. 5. 5. 2. 2. 2. 0. 0. 0. 0. 0. 0. 0. 0. 0. 2. 2. 2. 0. 0. 0. 1.
      1. 1. 2. 2. 2. 0. 0. 0. 2. 2. 2. 0. 0. 0. 0. 0. 0. 4. 4. 4. 0. 0.
      0. 195. 195. 195. 255. 255. 255. 255. 255. 255. 164. 164. 164. 11.
      11. 11. 0. 0. 0. 0. 0. 0. 1. 1. 1. 1. 1. 1. 0. 0. 0. 0. 0. 0. 0.
      0. 0. 1. 1. 1. 1. 1. 1. 0. 0. 0. 0. 0. 0. 0. 0. 0. 1. 1. 1. 0. 0.
      0. 1. 1. 1. 114. 114. 114. 166. 166. 166. 126. 126. 126. 17. 17.
      17. 0. 0. 0. 0. 0. 0. 2. 2. 2. 0. 0. 0. 1. 1. 1. 0. 0. 0. 0. 0. 0.
      0. 0. 0. 0. 0. 0. 0. 0. 0. 2. 2. 2. 1. 1. 1. 0. 0. 0. 0. 0. 0. 0.
      0. 0. 0. 0. 0. 0. 0. 0. 0. 0. 0. 0. 0. 0. 0. 0. 0. 0. 0. 0. 0. 0.
      0. 0. 0. 0. 0. 0. 0. 0. 0. 0. 0. 0. 0. 0. 0. 0. 0. 0. 0. 0. 0. 0.
      0. 0. 0. 0. 0. 0. 0. 0. 0. 0. 0. 0. 0. 0. 0. 0. 0. 0. 0. 0. 0. 0.
      0. 0. 0. 0. 0. 0. 0. 0. 0. 0. 0. 0. 0. 0. 0. 0. 0. 0. 0. 0. 0. 0.
      0. 0. 0. 0. 0. 0. 0. 0. 0. 0. 0. 0. 0. 0. 0. 0. 0. 0. 0. 0. 0. 0.
      0. 0. 0. 0. 0. 0. 0. 0. 0. 0. 0. 0. 0. 0. 0. 0. 0. 0. 0. 0. 0. 0.
      0. 0. 0. 0. 0. 0. 0. 0. 0. 0. 0. 0. 0. 0. 0. 0. 0. 0. 0. 0. 0. 0.
      0. 0. 0. 0. 0. 0. 0. 0. 0. 0. 0. 0. 0. 0. 0. 0. 0. 0. 0. 0. 0. 0.
      0. 0. 0. 0. 0. 0. 0. 0. 0. 0. 0. 0. 0. 0. 0. 0. 0. 0. 0. 0. 0. 0.
      0. 0. 0. 0. 0. 0. 0. 0. 0. 0. 0. 0. 0. 0. 0. 0. 0. 0. 0. 0. 0. 0.
      0. 0. 0. 0. 0. 0. 0. 0. 0. 0. 0. 0. 0.</_>
    <_>
      1. 1. 1. 0. 0. 0. 0. 0. 0. 2. 2. 2. 0. 0. 0. 1. 1. 1. 0. 0. 0. 0.
      0. 0. 1. 1. 1. 0. 0. 0. 0. 0. 0. 0. 0. 0. 0. 0. 0. 1. 1. 1. 0. 0.
      0. 0. 0. 0. 0. 0. 0. 0. 0. 0. 0. 0. 0. 0. 0. 0. 0. 0. 0. 4. 4. 4.
      0. 0. 0. 0. 0. 0. 0. 0. 0. 0. 0. 0. 3. 3. 3. 1. 1. 1. 0. 0. 0. 1.
      1. 1. 2. 2. 2. 0. 0. 0. 0. 0. 0. 3. 3. 3. 0. 0. 0. 2. 2. 2. 0. 0.
      0. 0. 0. 0. 0. 0. 0. 0. 0. 0. 0. 0. 0. 1. 1. 1. 1. 1. 1. 1. 1. 1.
      0. 0. 0. 1. 1. 1. 0. 0. 0. 0. 0. 0. 0. 0. 0. 0. 0. 0. 8. 8. 8. 29.
      29. 29. 3. 3. 3. 1. 1. 1. 0. 0. 0. 0. 0. 0. 0. 0. 0. 0. 0. 0. 0.
      0. 0. 0. 0. 0. 1. 1. 1. 2. 2. 2. 0. 0. 0. 1. 1. 1. 2. 2. 2. 0. 0.
      0. 0. 0. 0. 2. 2. 2. 0. 0. 0. 14. 14. 14. 154. 154. 154. 218. 218.
      218. 26. 26. 26. 0. 0. 0. 3. 3. 3. 0. 0. 0. 0. 0. 0. 0. 0. 0. 0.
      0. 0. 0. 0. 0. 0. 0. 0. 0. 0. 0. 0. 0. 0. 0. 0. 0. 1. 1. 1. 1. 1.
      1. 4. 4. 4. 0. 0. 0. 63. 63. 63. 183. 183. 183. 215. 215. 215.
      193. 193. 193. 13. 13. 13. 0. 0. 0. 0. 0. 0. 2. 2. 2. 0. 0. 0. 0.
      0. 0. 0. 0. 0. 0. 0. 0. 2. 2. 2. 2. 2. 2. 3. 3. 3. 2. 2. 2. 0. 0.
      0. 0. 0. 0. 0. 0. 0. 69. 69. 69. 237. 237. 237. 110. 110. 110.
      116. 116. 116. 164. 164. 164. 0. 0. 0. 0. 0. 0. 3. 3. 3. 0. 0. 0.
      0. 0. 0. 0. 0. 0. 0. 0. 0. 0. 0. 0. 0. 0. 0. 2. 2. 2. 0. 0. 0. 0.
      0. 0. 4. 4. 4. 0. 0. 0. 1. 1. 1. 141. 141. 141. 150. 150. 150. 0.
      0. 0. 114. 114. 114. 184. 184. 184. 8. 8. 8. 0. 0. 0. 0. 0. 0. 4.
      4. 4. 0. 0. 0. 0. 0. 0. 0. 0. 0. 0. 0. 0. 1. 1. 1. 0. 0. 0. 5. 5.
      5. 0. 0. 0. 0. 0. 0. 0. 0. 0. 1. 1. 1. 20. 20. 20. 15. 15. 15. 0.
      0. 0. 125. 125. 125. 148. 148. 148. 0. 0. 0. 1. 1. 1. 2. 2. 2. 0.
      0. 0. 0. 0. 0. 0. 0. 0. 0. 0. 0. 0. 0. 0. 3. 3. 3. 0. 0. 0. 0. 0.
      0. 0. 0. 0. 0. 0. 0. 0. 0. 0. 0. 0. 0. 0. 0. 0. 0. 0. 0. 0. 0. 0.
      159. 159. 159. 122. 122. 122. 0. 0. 0. 0. 0. 0. 0. 0. 0. 0. 0. 0.
      0. 0. 0. 0. 0. 0. 0. 0. 0. 0. 0. 0. 0. 0. 0. 0. 0. 0. 0. 0. 0. 0.
      0. 0. 1. 1. 1. 1. 1. 1. 1. 1. 1. 1. 1. 1. 1. 1. 1. 6. 6. 6. 191.
      191. 191. 87. 87. 87. 0. 0. 0. 2. 2. 2. 1. 1. 1. 0. 0. 0. 0. 0. 0.
      0. 0. 0. 0. 0. 0. 0. 0. 0. 0. 0. 0. 0. 0. 0. 1. 1. 1. 0. 0. 0. 0.
      0. 0. 0. 0. 0. 0. 0. 0. 0. 0. 0. 0. 0. 0. 15. 15. 15. 203. 203.
      203. 66. 66. 66. 1. 1. 1. 1. 1. 1. 0. 0. 0. 2. 2. 2. 0. 0. 0. 0.
      0. 0. 0. 0. 0. 0. 0. 0. 0. 0. 0. 1. 1. 1. 0. 0. 0. 0. 0. 0. 0. 0.
      0. 0. 0. 0. 0. 0. 0. 0. 0. 0. 0. 0. 0. 35. 35. 35. 217. 217. 217.
      50. 50. 50. 1. 1. 1. 0. 0. 0. 1. 1. 1. 0. 0. 0. 0. 0. 0. 0. 0. 0.
      0. 0. 0. 0. 0. 0. 0. 0. 0. 0. 0. 0. 0. 0. 0. 0. 0. 0. 0. 0. 0. 1.
      1. 1. 1. 1. 1. 0. 0. 0. 0. 0. 0. 71. 71. 71. 197. 197. 197. 21.
      21. 21. 0. 0. 0. 0. 0. 0. 1. 1. 1. 0. 0. 0. 0. 0. 0. 0. 0. 0. 0.
      0. 0. 0. 0. 0. 0. 0. 0. 0. 0. 0. 0. 0. 0. 1. 1. 1. 1. 1. 1. 0. 0.
      0. 0. 0. 0. 0. 0. 0. 1. 1. 1. 135. 135. 135. 158. 158. 158. 0. 0.
      0. 4. 4. 4. 2. 2. 2. 0. 0. 0. 2. 2. 2. 0. 0. 0. 0. 0. 0. 0. 0. 0.
      0. 0. 0. 1. 1. 1. 0. 0. 0. 0. 0. 0. 1. 1. 1. 0. 0. 0. 0. 0. 0. 0.
      0. 0. 3. 3. 3. 0. 0. 0. 163. 163. 163. 149. 149. 149. 1. 1. 1. 0.
      0. 0. 0. 0. 0. 4. 4. 4. 0. 0. 0. 0. 0. 0. 0. 0. 0. 0. 0. 0. 0. 0.
      0. 1. 1. 1. 0. 0. 0. 0. 0. 0. 1. 1. 1. 0. 0. 0. 0. 0. 0. 5. 5. 5.
      12. 12. 12. 71. 71. 71. 205. 205. 205. 211. 211. 211. 89. 89. 89.
      0. 0. 0. 0. 0. 0. 0. 0. 0. 0. 0. 0. 0. 0. 0. 0. 0. 0. 0. 0. 0. 0.
      0. 0. 0. 0. 0. 0. 0. 0. 0. 0. 0. 3. 3. 3. 0. 0. 0. 1. 1. 1. 80.
      80. 80. 192. 192. 192. 232. 232. 232. 253. 253. 253. 164. 164.
      164. 62. 62. 62. 0. 0. 0. 0. 0. 0. 0. 0. 0. 1. 1. 1. 0. 0. 0. 0.
      0. 0. 0. 0. 0. 0. 0. 0. 1. 1. 1. 1. 1. 1. 0. 0. 0. 0. 0. 0. 1. 1.
      1. 2. 2. 2. 20. 20. 20. 48. 48. 48. 31. 31. 31. 34. 34. 34. 5. 5.
      5. 0. 0. 0. 0. 0. 0. 1. 1. 1. 0. 0. 0. 1. 1. 1. 0. 0. 0. 0. 0. 0.
      0. 0. 0. 0. 0. 0. 0. 0. 0. 0. 0. 0. 1. 1. 1. 0. 0. 0. 0. 0. 0. 0.
      0. 0. 1. 1. 1. 0. 0. 0. 0. 0. 0. 0. 0. 0. 0. 0. 0. 2. 2. 2. 3. 3.
      3. 0. 0. 0. 1. 1. 1. 0. 0. 0. 0. 0. 0. 0. 0. 0. 0. 0. 0. 0. 0. 0.
      3. 3. 3. 0. 0. 0. 0. 0. 0. 2. 2. 2. 0. 0. 0. 0. 0. 0. 2. 2. 2. 2.
      2. 2. 2. 2. 2. 0. 0. 0. 2. 2. 2. 0. 0. 0. 0. 0. 0. 0. 0. 0. 2. 2.
      2. 1. 1. 1. 0. 0. 0. 0. 0. 0. 0. 0. 0. 0. 0. 0.</_>
    <_>
      0. 0. 0. 0. 0. 0. 0. 0. 0. 0. 0. 0. 0. 0. 0. 0. 0. 0. 0. 0. 0. 0.
      0. 0. 0. 0. 0. 0. 0. 0. 4. 4. 4. 0. 0. 0. 0. 0. 0. 1. 1. 1. 0. 0.
      0. 0. 0. 0. 0. 0. 0. 0. 0. 0. 0. 0. 0. 0. 0. 0. 0. 0. 0. 0. 0. 0.
      0. 0. 0. 0. 0. 0. 0. 0. 0. 0. 0. 0. 0. 0. 0. 0. 0. 0. 0. 0. 0. 1.
      1. 1. 0. 0. 0. 2. 2. 2. 0. 0. 0. 1. 1. 1. 0. 0. 0. 3. 3. 3. 0. 0.
      0. 0. 0. 0. 0. 0. 0. 0. 0. 0. 0. 0. 0. 0. 0. 0. 0. 0. 0. 0. 0. 0.
      0. 0. 0. 0. 0. 0. 0. 0. 0. 0. 0. 0. 1. 1. 1. 0. 0. 0. 3. 3. 3. 0.
      0. 0. 5. 5. 5. 22. 22. 22. 0. 0. 0. 0. 0. 0. 0. 0. 0. 0. 0. 0. 0.
      0. 0. 0. 0. 0. 0. 0. 0. 0. 0. 0. 0. 0. 0. 0. 0. 0. 0. 0. 0. 0. 0.
      0. 0. 0. 0. 0. 0. 0. 0. 0. 0. 0. 0. 0. 0. 0. 0. 2. 2. 2. 103. 103.
      103. 190. 190. 190. 16. 16. 16. 1. 1. 1. 0. 0. 0. 0. 0. 0. 0. 0.
      0. 0. 0. 0. 0. 0. 0. 0. 0. 0. 0. 0. 0. 0. 0. 0. 0. 0. 0. 0. 0. 0.
      0. 0. 0. 0. 0. 0. 0. 0. 0. 3. 3. 3. 2. 2. 2. 56. 56. 56. 229. 229.
      229. 184. 184. 184. 9. 9. 9. 1. 1. 1. 0. 0. 0. 0. 0. 0. 0. 0. 0.
      0. 0. 0. 0. 0. 0. 0. 0. 0. 0. 0. 0. 0. 0. 0. 0. 0. 0. 0. 0. 0. 0.
      0. 0. 0. 0. 0. 0. 0. 0. 1. 1. 1. 0. 0. 0. 141. 141. 141. 255. 255.
      255. 70. 70. 70. 0. 0. 0. 1. 1. 1. 0. 0. 0. 0. 0. 0. 0. 0. 0. 0.
      0. 0. 0. 0. 0. 0. 0. 0. 0. 0. 0. 0. 0. 0. 0. 0. 0. 0. 0. 0. 0. 0.
      0. 0. 0. 0. 1. 1. 1. 0. 0. 0. 42. 42. 42. 217. 217. 217. 199. 199.
      199. 3. 3. 3. 0. 0. 0. 2. 2. 2. 0. 0. 0. 0. 0. 0. 0. 0. 0. 0. 0.
      0. 0. 0. 0. 0. 0. 0. 0. 0. 0. 0. 0. 0. 0. 0. 0. 0. 0. 0. 0. 0. 0.
      0. 0. 0. 0. 0. 0. 0. 0. 0. 176. 176. 176. 251. 251. 251. 82. 82.
      82. 0. 0. 0. 2. 2. 2. 0. 0. 0. 0. 0. 0. 0. 0. 0. 0. 0. 0. 0. 0. 0.
      1. 1. 1. 0. 0. 0. 0. 0. 0. 3. 3. 3. 0. 0. 0. 0. 0. 0. 3. 3. 3. 0.
      0. 0. 1. 1. 1. 35. 35. 35. 255. 255. 255. 159. 159. 159. 0. 0. 0.
      0. 0. 0. 2. 2. 2. 0. 0. 0. 0. 0. 0. 0. 0. 0. 0. 0. 0. 0. 0. 0. 0.
      0. 0. 1. 1. 1. 2. 2. 2. 0. 0. 0. 2. 2. 2. 2. 2. 2. 0. 0. 0. 0. 0.
      0. 0. 0. 0. 172. 172. 172. 251. 251. 251. 85. 85. 85. 4. 4. 4. 0.
      0. 0. 1. 1. 1. 2. 2. 2. 0. 0. 0. 0. 0. 0. 0. 0. 0. 0. 0. 0. 2. 2.
      2. 0. 0. 0. 1. 1. 1. 1. 1. 1. 0. 0. 0. 0. 0. 0. 3. 3. 3. 3. 3. 3.
      123. 123. 123. 253. 253. 253. 167. 167. 167. 0. 0. 0. 1. 1. 1. 0.
      0. 0. 0. 0. 0. 0. 0. 0. 0. 0. 0. 0. 0. 0. 0. 0. 0. 0. 0. 0. 0. 0.
      0. 2. 2. 2. 0. 0. 0. 1. 1. 1. 1. 1. 1. 0. 0. 0. 0. 0. 0. 18. 18.
      18. 214. 214. 214. 254. 254. 254. 47. 47. 47. 2. 2. 2. 0. 0. 0. 3.
      3. 3. 0. 0. 0. 0. 0. 0. 0. 0. 0. 0. 0. 0. 0. 0. 0. 0. 0. 0. 0. 0.
      0. 2. 2. 2. 0. 0. 0. 1. 1. 1. 0. 0. 0. 5. 5. 5. 0. 0. 0. 50. 50.
      50. 234. 234. 234. 137. 137. 137. 0. 0. 0. 0. 0. 0. 0. 0. 0. 0. 0.
      0. 0. 0. 0. 2. 2. 2. 0. 0. 0. 0. 0. 0. 0. 0. 0. 0. 0. 0. 1. 1. 1.
      1. 1. 1. 0. 0. 0. 1. 1. 1. 1. 1. 1. 0. 0. 0. 17. 17. 17. 199. 199.
      199. 250. 250. 250. 55. 55. 55. 0. 0. 0. 4. 4. 4. 0. 0. 0. 0. 0.
      0. 3. 3. 3. 0. 0. 0. 0. 0. 0. 0. 0. 0. 0. 0. 0. 0. 0. 0. 1. 1. 1.
      0. 0. 0. 0. 0. 0. 0. 0. 0. 0. 0. 0. 4. 4. 4. 35. 35. 35. 239. 239.
      239. 191. 191. 191. 21. 21. 21. 0. 0. 0. 1. 1. 1. 0. 0. 0. 0. 0.
      0. 0. 0. 0. 1. 1. 1. 0. 0. 0. 0. 0. 0. 0. 0. 0. 0. 0. 0. 0. 0. 0.
      0. 0. 0. 0. 0. 0. 2. 2. 2. 1. 1. 1. 0. 0. 0. 35. 35. 35. 236. 236.
      236. 175. 175. 175. 26. 26. 26. 1. 1. 1. 0. 0. 0. 0. 0. 0. 1. 1.
      1. 0. 0. 0. 0. 0. 0. 0. 0. 0. 0. 0. 0. 0. 0. 0. 0. 0. 0. 1. 1. 1.
      0. 0. 0. 0. 0. 0. 0. 0. 0. 0. 0. 0. 0. 0. 0. 12. 12. 12. 199. 199.
      199. 250. 250. 250. 98. 98. 98. 0. 0. 0. 0. 0. 0. 1. 1. 1. 0. 0.
      0. 2. 2. 2. 0. 0. 0. 0. 0. 0. 0. 0. 0. 0. 0. 0. 0. 0. 0. 0. 0. 0.
      1. 1. 1. 0. 0. 0. 2. 2. 2. 0. 0. 0. 2. 2. 2. 0. 0. 0. 22. 22. 22.
      32. 32. 32. 8. 8. 8. 0. 0. 0. 2. 2. 2. 1. 1. 1. 0. 0. 0. 1. 1. 1.
      0. 0. 0. 0. 0. 0. 0. 0. 0. 0. 0. 0. 0. 0. 0. 0. 0. 0. 4. 4. 4. 0.
      0. 0. 0. 0. 0. 1. 1. 1. 0. 0. 0. 0. 0. 0. 3. 3. 3. 0. 0. 0. 1. 1.
      1. 0. 0. 0. 0. 0. 0. 2. 2. 2. 0. 0. 0. 0. 0. 0. 1. 1. 1. 0. 0. 0.
      0. 0. 0. 0. 0. 0. 0. 0. 0. 2. 2. 2. 0. 0. 0. 0. 0. 0. 1. 1. 1. 0.
      0. 0. 3. 3. 3. 0. 0. 0. 0. 0. 0. 0. 0. 0. 2. 2. 2. 2. 2. 2. 0. 0.
      0. 0. 0. 0. 0. 0. 0. 0. 0. 0. 1. 1. 1. 0. 0. 0. 0. 0. 0. 0. 0. 0.
      0. 0. 0.</_>
    <_>
      0. 0. 0. 0. 0. 0. 3. 3. 3. 0. 0. 0. 0. 0. 0. 0. 0. 0. 2. 2. 2. 0.
      0. 0. 1. 1. 1. 0. 0. 0. 0. 0. 0. 1. 1. 1. 0. 0. 0. 1. 1. 1. 0. 0.
      0. 0. 0. 0. 0. 0. 0. 0. 0. 0. 2. 2. 2. 0. 0. 0. 0. 0. 0. 3. 3. 3.
      0. 0. 0. 0. 0. 0. 2. 2. 2. 0. 0. 0. 0. 0. 0. 1. 1. 1. 0. 0. 0. 2.
      2. 2. 0. 0. 0. 1. 1. 1. 1. 1. 1. 3. 3. 3. 0. 0. 0. 1. 1. 1. 2. 2.
      2. 0. 0. 0. 0. 0. 0. 0. 0. 0. 0. 0. 0. 0. 0. 0. 6. 6. 6. 0. 0. 0.
      0. 0. 0. 3. 3. 3. 0. 0. 0. 1. 1. 1. 1. 1. 1. 0. 0. 0. 0. 0. 0. 2.
      2. 2. 0. 0. 0. 21. 21. 21. 11. 11. 11. 0. 0. 0. 1. 1. 1. 0. 0. 0.
      1. 1. 1. 0. 0. 0. 1. 1. 1. 3. 3. 3. 0. 0. 0. 0. 0. 0. 0. 0. 0. 3.
      3. 3. 0. 0. 0. 0. 0. 0. 0. 0. 0. 0. 0. 0. 2. 2. 2. 10. 10. 10.
      117. 117. 117. 235. 235. 235. 108. 108. 108. 0. 0. 0. 0. 0. 0. 0.
      0. 0. 3. 3. 3. 0. 0. 0. 0. 0. 0. 0. 0. 0. 0. 0. 0. 1. 1. 1. 1. 1.
      1. 0. 0. 0. 1. 1. 1. 1. 1. 1. 0. 0. 0. 0. 0. 0. 84. 84. 84. 198.
      198. 198. 254. 254. 254. 254. 254. 254. 124. 124. 124. 36. 36. 36.
      5. 5. 5. 0. 0. 0. 0. 0. 0. 0. 0. 0. 2. 2. 2. 1. 1. 1. 0. 0. 0. 3.
      3. 3. 0. 0. 0. 0. 0. 0. 1. 1. 1. 0. 0. 0. 33. 33. 33. 155. 155.
      155. 241. 241. 241. 196. 196. 196. 126. 126. 126. 251. 251. 251.
      255. 255. 255. 198. 198. 198. 21. 21. 21. 3. 3. 3. 0. 0. 0. 1. 1.
      1. 0. 0. 0. 0. 0. 0. 0. 0. 0. 0. 0. 0. 0. 0. 0. 4. 4. 4. 5. 5. 5.
      122. 122. 122. 227. 227. 227. 230. 230. 230. 108. 108. 108. 11.
      11. 11. 138. 138. 138. 255. 255. 255. 209. 209. 209. 75. 75. 75.
      19. 19. 19. 3. 3. 3. 0. 0. 0. 2. 2. 2. 0. 0. 0. 2. 2. 2. 0. 0. 0.
      1. 1. 1. 0. 0. 0. 44. 44. 44. 200. 200. 200. 248. 248. 248. 152.
      152. 152. 47. 47. 47. 0. 0. 0. 1. 1. 1. 218. 218. 218. 245. 245.
      245. 62. 62. 62. 0. 0. 0. 1. 1. 1. 0. 0. 0. 0. 0. 0. 1. 1. 1. 0.
      0. 0. 0. 0. 0. 1. 1. 1. 0. 0. 0. 50. 50. 50. 206. 206. 206. 216.
      216. 216. 95. 95. 95. 0. 0. 0. 0. 0. 0. 1. 1. 1. 114. 114. 114.
      252. 252. 252. 147. 147. 147. 0. 0. 0. 0. 0. 0. 0. 0. 0. 0. 0. 0.
      0. 0. 0. 0. 0. 0. 3. 3. 3. 0. 0. 0. 0. 0. 0. 17. 17. 17. 182. 182.
      182. 169. 169. 169. 30. 30. 30. 1. 1. 1. 2. 2. 2. 0. 0. 0. 18. 18.
      18. 202. 202. 202. 235. 235. 235. 24. 24. 24. 2. 2. 2. 0. 0. 0. 0.
      0. 0. 0. 0. 0. 0. 0. 0. 0. 0. 0. 0. 0. 0. 0. 0. 0. 2. 2. 2. 34.
      34. 34. 83. 83. 83. 8. 8. 8. 0. 0. 0. 0. 0. 0. 0. 0. 0. 0. 0. 0.
      108. 108. 108. 255. 255. 255. 102. 102. 102. 0. 0. 0. 0. 0. 0. 1.
      1. 1. 0. 0. 0. 0. 0. 0. 0. 0. 0. 0. 0. 0. 0. 0. 0. 1. 1. 1. 2. 2.
      2. 0. 0. 0. 2. 2. 2. 1. 1. 1. 1. 1. 1. 0. 0. 0. 0. 0. 0. 2. 2. 2.
      207. 207. 207. 213. 213. 213. 14. 14. 14. 0. 0. 0. 3. 3. 3. 0. 0.
      0. 0. 0. 0. 0. 0. 0. 0. 0. 0. 0. 0. 0. 0. 0. 0. 2. 2. 2. 0. 0. 0.
      2. 2. 2. 0. 0. 0. 0. 0. 0. 1. 1. 1. 0. 0. 0. 0. 0. 0. 24. 24. 24.
      224. 224. 224. 152. 152. 152. 0. 0. 0. 0. 0. 0. 0. 0. 0. 3. 3. 3.
      0. 0. 0. 0. 0. 0. 0. 0. 0. 0. 0. 0. 0. 0. 0. 1. 1. 1. 0. 0. 0. 0.
      0. 0. 1. 1. 1. 1. 1. 1. 0. 0. 0. 0. 0. 0. 0. 0. 0. 109. 109. 109.
      255. 255. 255. 100. 100. 100. 0. 0. 0. 9. 9. 9. 0. 0. 0. 0. 0. 0.
      0. 0. 0. 0. 0. 0. 0. 0. 0. 0. 0. 0. 1. 1. 1. 2. 2. 2. 0. 0. 0. 3.
      3. 3. 2. 2. 2. 2. 2. 2. 0. 0. 0. 0. 0. 0. 1. 1. 1. 152. 152. 152.
      232. 232. 232. 92. 92. 92. 113. 113. 113. 104. 104. 104. 2. 2. 2.
      0. 0. 0. 0. 0. 0. 0. 0. 0. 0. 0. 0. 0. 0. 0. 0. 0. 0. 0. 0. 0. 2.
      2. 2. 0. 0. 0. 112. 112. 112. 199. 199. 199. 136. 136. 136. 124.
      124. 124. 132. 132. 132. 228. 228. 228. 255. 255. 255. 243. 243.
      243. 184. 184. 184. 63. 63. 63. 0. 0. 0. 0. 0. 0. 0. 0. 0. 0. 0.
      0. 0. 0. 0. 0. 0. 0. 0. 0. 0. 3. 3. 3. 0. 0. 0. 1. 1. 1. 65. 65.
      65. 181. 181. 181. 253. 253. 253. 255. 255. 255. 255. 255. 255.
      208. 208. 208. 153. 153. 153. 89. 89. 89. 25. 25. 25. 0. 0. 0. 1.
      1. 1. 0. 0. 0. 0. 0. 0. 0. 0. 0. 0. 0. 0. 0. 0. 0. 2. 2. 2. 0. 0.
      0. 1. 1. 1. 0. 0. 0. 0. 0. 0. 10. 10. 10. 30. 30. 30. 36. 36. 36.
      34. 34. 34. 17. 17. 17. 5. 5. 5. 0. 0. 0. 0. 0. 0. 0. 0. 0. 2. 2.
      2. 0. 0. 0. 0. 0. 0. 0. 0. 0. 0. 0. 0. 0. 0. 0. 0. 0. 0. 0. 0. 0.
      2. 2. 2. 3. 3. 3. 0. 0. 0. 0. 0. 0. 2. 2. 2. 0. 0. 0. 0. 0. 0. 0.
      0. 0. 0. 0. 0. 0. 0. 0. 2. 2. 2. 1. 1. 1. 0. 0. 0. 2. 2. 2. 0. 0.
      0. 0. 0. 0. 0. 0. 0. 0. 0. 0. 1. 1. 1. 0. 0. 0. 0. 0. 0. 0. 0. 0.
      0. 0. 0. 1. 1. 1. 0. 0. 0. 0. 0. 0. 0. 0. 0. 2. 2. 2. 0. 0. 0. 0.
      0. 0. 1. 1. 1. 0. 0. 0. 0. 0. 0. 1. 1. 1. 0. 0. 0. 0. 0. 0. 0. 0.
      0. 0. 0. 0.</_>
    <_>
      0. 0. 0. 0. 0. 0. 4. 4. 4. 0. 0. 0. 1. 1. 1. 0. 0. 0. 1. 1. 1. 0.
      0. 0. 0. 0. 0. 0. 0. 0. 0. 0. 0. 1. 1. 1. 3. 3. 3. 0. 0. 0. 2. 2.
      2. 0. 0. 0. 0. 0. 0. 0. 0. 0. 0. 0. 0. 0. 0. 0. 4. 4. 4. 0. 0. 0.
      0. 0. 0. 0. 0. 0. 0. 0. 0. 0. 0. 0. 1. 1. 1. 2. 2. 2. 0. 0. 0. 5.
      5. 5. 2. 2. 2. 0. 0. 0. 3. 3. 3. 0. 0. 0. 0. 0. 0. 1. 1. 1. 0. 0.
      0. 0. 0. 0. 0. 0. 0. 0. 0. 0. 1. 1. 1. 0. 0. 0. 3. 3. 3. 0. 0. 0.
      3. 3. 3. 2. 2. 2. 0. 0. 0. 0. 0. 0. 1. 1. 1. 62. 62. 62. 195. 195.
      195. 73. 73. 73. 1. 1. 1. 2. 2. 2. 2. 2. 2. 0. 0. 0. 0. 0. 0. 0.
      0. 0. 0. 0. 0. 0. 0. 0. 0. 0. 0. 1. 1. 1. 0. 0. 0. 1. 1. 1. 0. 0.
      0. 0. 0. 0. 1. 1. 1. 2. 2. 2. 5. 5. 5. 185. 185. 185. 255. 255.
      255. 253. 253. 253. 60. 60. 60. 0. 0. 0. 2. 2. 2. 0. 0. 0. 0. 0.
      0. 0. 0. 0. 0. 0. 0. 0. 0. 0. 0. 0. 0. 2. 2. 2. 2. 2. 2. 0. 0. 0.
      0. 0. 0. 1. 1. 1. 0. 0. 0. 0. 0. 0. 4. 4. 4. 149. 149. 149. 253.
      253. 253. 255. 255. 255. 104. 104. 104. 2. 2. 2. 0. 0. 0. 0. 0. 0.
      0. 0. 0. 0. 0. 0. 0. 0. 0. 0. 0. 0. 0. 0. 0. 1. 1. 1. 1. 1. 1. 0.
      0. 0. 44. 44. 44. 141. 141. 141. 29. 29. 29. 70. 70. 70. 198. 198.
      198. 253. 253. 253. 255. 255. 255. 252. 252. 252. 76. 76. 76. 2.
      2. 2. 0. 0. 0. 4. 4. 4. 0. 0. 0. 0. 0. 0. 0. 0. 0. 0. 0. 0. 1. 1.
      1. 0. 0. 0. 0. 0. 0. 2. 2. 2. 104. 104. 104. 252. 252. 252. 211.
      211. 211. 240. 240. 240. 255. 255. 255. 252. 252. 252. 250. 250.
      250. 255. 255. 255. 76. 76. 76. 0. 0. 0. 2. 2. 2. 0. 0. 0. 0. 0.
      0. 0. 0. 0. 0. 0. 0. 0. 0. 0. 0. 0. 0. 0. 0. 0. 0. 0. 0. 0. 0. 0.
      152. 152. 152. 255. 255. 255. 255. 255. 255. 254. 254. 254. 254.
      254. 254. 255. 255. 255. 253. 253. 253. 255. 255. 255. 128. 128.
      128. 2. 2. 2. 0. 0. 0. 0. 0. 0. 0. 0. 0. 0. 0. 0. 0. 0. 0. 0. 0.
      0. 2. 2. 2. 0. 0. 0. 1. 1. 1. 0. 0. 0. 140. 140. 140. 255. 255.
      255. 250. 250. 250. 238. 238. 238. 187. 187. 187. 214. 214. 214.
      255. 255. 255. 255. 255. 255. 119. 119. 119. 0. 0. 0. 0. 0. 0. 1.
      1. 1. 0. 0. 0. 0. 0. 0. 0. 0. 0. 0. 0. 0. 0. 0. 0. 2. 2. 2. 0. 0.
      0. 0. 0. 0. 42. 42. 42. 203. 203. 203. 160. 160. 160. 71. 71. 71.
      10. 10. 10. 80. 80. 80. 238. 238. 238. 253. 253. 253. 181. 181.
      181. 26. 26. 26. 1. 1. 1. 0. 0. 0. 0. 0. 0. 0. 0. 0. 0. 0. 0. 2.
      2. 2. 1. 1. 1. 1. 1. 1. 0. 0. 0. 0. 0. 0. 4. 4. 4. 47. 47. 47.
      201. 201. 201. 24. 24. 24. 0. 0. 0. 0. 0. 0. 195. 195. 195. 254.
      254. 254. 255. 255. 255. 98. 98. 98. 0. 0. 0. 0. 0. 0. 0. 0. 0. 1.
      1. 1. 0. 0. 0. 0. 0. 0. 0. 0. 0. 0. 0. 0. 0. 0. 0. 0. 0. 0. 0. 0.
      0. 29. 29. 29. 118. 118. 118. 21. 21. 21. 0. 0. 0. 1. 1. 1. 95.
      95. 95. 234. 234. 234. 255. 255. 255. 173. 173. 173. 15. 15. 15.
      1. 1. 1. 0. 0. 0. 0. 0. 0. 3. 3. 3. 0. 0. 0. 3. 3. 3. 0. 0. 0. 0.
      0. 0. 5. 5. 5. 0. 0. 0. 2. 2. 2. 0. 0. 0. 1. 1. 1. 0. 0. 0. 0. 0.
      0. 2. 2. 2. 173. 173. 173. 254. 254. 254. 220. 220. 220. 45. 45.
      45. 0. 0. 0. 0. 0. 0. 4. 4. 4. 0. 0. 0. 0. 0. 0. 0. 0. 0. 3. 3. 3.
      2. 2. 2. 0. 0. 0. 0. 0. 0. 1. 1. 1. 1. 1. 1. 19. 19. 19. 0. 0. 0.
      28. 28. 28. 78. 78. 78. 187. 187. 187. 254. 254. 254. 234. 234.
      234. 166. 166. 166. 85. 85. 85. 82. 82. 82. 32. 32. 32. 3. 3. 3.
      1. 1. 1. 2. 2. 2. 1. 1. 1. 0. 0. 0. 0. 0. 0. 0. 0. 0. 0. 0. 0. 35.
      35. 35. 195. 195. 195. 180. 180. 180. 213. 213. 213. 255. 255.
      255. 252. 252. 252. 255. 255. 255. 254. 254. 254. 253. 253. 253.
      254. 254. 254. 255. 255. 255. 203. 203. 203. 26. 26. 26. 0. 0. 0.
      2. 2. 2. 0. 0. 0. 2. 2. 2. 1. 1. 1. 0. 0. 0. 1. 1. 1. 61. 61. 61.
      218. 218. 218. 236. 236. 236. 229. 229. 229. 228. 228. 228. 227.
      227. 227. 223. 223. 223. 226. 226. 226. 226. 226. 226. 226. 226.
      226. 226. 226. 226. 241. 241. 241. 123. 123. 123. 0. 0. 0. 2. 2.
      2. 0. 0. 0. 1. 1. 1. 0. 0. 0. 2. 2. 2. 0. 0. 0. 2. 2. 2. 41. 41.
      41. 49. 49. 49. 49. 49. 49. 49. 49. 49. 49. 49. 49. 49. 49. 49.
      49. 49. 49. 49. 49. 49. 49. 49. 49. 50. 50. 50. 52. 52. 52. 30.
      30. 30. 3. 3. 3. 0. 0. 0. 0. 0. 0. 2. 2. 2. 0. 0. 0. 0. 0. 0. 2.
      2. 2. 0. 0. 0. 3. 3. 3. 0. 0. 0. 0. 0. 0. 0. 0. 0. 0. 0. 0. 0. 0.
      0. 0. 0. 0. 0. 0. 0. 0. 0. 0. 0. 0. 0. 2. 2. 2. 0. 0. 0. 0. 0. 0.
      0. 0. 0. 0. 0. 0. 2. 2. 2. 1. 1. 1. 0. 0. 0. 3. 3. 3. 1. 1. 1. 0.
      0. 0. 0. 0. 0. 0. 0. 0. 0. 0. 0. 0. 0. 0. 0. 0. 0. 0. 0. 0. 0. 0.
      0. 0. 0. 0. 2. 2. 2. 2. 2. 2. 0. 0. 0. 1. 1. 1. 2. 2. 2. 0. 0. 0.
      0. 0. 0. 3. 3. 3. 0. 0. 0. 0. 0. 0. 1. 1. 1. 2. 2. 2. 0. 0. 0. 0.
      0. 0. 0. 0. 0. 0. 0. 0. 0. 0. 0. 0. 0. 0. 0. 0. 0. 0. 0. 0. 0. 0.
      0. 0. 0. 0. 0. 0. 0. 0. 0. 0.</_>
    <_>
      0. 0. 0. 0. 0. 0. 0. 0. 0. 0. 0. 0. 0. 0. 0. 0. 0. 0. 0. 0. 0. 0.
      0. 0. 1. 1. 1. 0. 0. 0. 0. 0. 0. 3. 3. 3. 0. 0. 0. 2. 2. 2. 0. 0.
      0. 1. 1. 1. 0. 0. 0. 0. 0. 0. 0. 0. 0. 0. 0. 0. 0. 0. 0. 0. 0. 0.
      0. 0. 0. 0. 0. 0. 0. 0. 0. 0. 0. 0. 0. 0. 0. 0. 0. 0. 3. 3. 3. 0.
      0. 0. 2. 2. 2. 0. 0. 0. 0. 0. 0. 0. 0. 0. 0. 0. 0. 1. 1. 1. 0. 0.
      0. 0. 0. 0. 0. 0. 0. 0. 0. 0. 0. 0. 0. 0. 0. 0. 0. 0. 0. 0. 0. 0.
      0. 0. 0. 0. 0. 0. 0. 0. 0. 0. 0. 0. 0. 0. 0. 3. 3. 3. 1. 1. 1. 0.
      0. 0. 0. 0. 0. 0. 0. 0. 4. 4. 4. 0. 0. 0. 0. 0. 0. 0. 0. 0. 0. 0.
      0. 0. 0. 0. 0. 0. 0. 0. 0. 0. 0. 0. 0. 0. 0. 0. 0. 0. 0. 0. 0. 0.
      0. 0. 0. 0. 0. 0. 0. 0. 0. 0. 0. 0. 0. 0. 0. 4. 4. 4. 0. 0. 0. 85.
      85. 85. 54. 54. 54. 0. 0. 0. 0. 0. 0. 0. 0. 0. 0. 0. 0. 0. 0. 0.
      0. 0. 0. 0. 0. 0. 0. 0. 0. 0. 0. 0. 0. 0. 0. 0. 0. 0. 0. 0. 0. 0.
      0. 0. 0. 0. 0. 3. 3. 3. 0. 0. 0. 0. 0. 0. 122. 122. 122. 205. 205.
      205. 52. 52. 52. 4. 4. 4. 0. 0. 0. 0. 0. 0. 0. 0. 0. 0. 0. 0. 0.
      0. 0. 0. 0. 0. 0. 0. 0. 0. 0. 0. 0. 0. 0. 0. 0. 0. 0. 0. 0. 0. 0.
      0. 0. 0. 0. 1. 1. 1. 3. 3. 3. 95. 95. 95. 231. 231. 231. 77. 77.
      77. 0. 0. 0. 0. 0. 0. 0. 0. 0. 0. 0. 0. 0. 0. 0. 0. 0. 0. 0. 0. 0.
      0. 0. 0. 0. 0. 0. 0. 0. 0. 0. 0. 0. 0. 0. 0. 0. 0. 0. 0. 0. 0. 1.
      1. 1. 0. 0. 0. 51. 51. 51. 229. 229. 229. 99. 99. 99. 0. 0. 0. 0.
      0. 0. 0. 0. 0. 0. 0. 0. 0. 0. 0. 0. 0. 0. 0. 0. 0. 0. 0. 0. 0. 0.
      0. 0. 0. 0. 0. 0. 0. 0. 0. 0. 0. 0. 0. 0. 0. 0. 0. 0. 0. 0. 0. 0.
      8. 8. 8. 183. 183. 183. 180. 180. 180. 5. 5. 5. 0. 0. 0. 1. 1. 1.
      0. 0. 0. 0. 0. 0. 0. 0. 0. 0. 0. 0. 0. 0. 0. 0. 0. 0. 0. 0. 0. 0.
      0. 0. 0. 0. 0. 0. 0. 0. 0. 0. 0. 0. 0. 0. 1. 1. 1. 2. 2. 2. 75.
      75. 75. 245. 245. 245. 68. 68. 68. 0. 0. 0. 3. 3. 3. 0. 0. 0. 0.
      0. 0. 0. 0. 0. 0. 0. 0. 0. 0. 0. 0. 0. 0. 0. 0. 0. 1. 1. 1. 0. 0.
      0. 0. 0. 0. 1. 1. 1. 1. 1. 1. 0. 0. 0. 0. 0. 0. 0. 0. 0. 160. 160.
      160. 168. 168. 168. 7. 7. 7. 0. 0. 0. 0. 0. 0. 0. 0. 0. 3. 3. 3.
      0. 0. 0. 0. 0. 0. 0. 0. 0. 0. 0. 0. 0. 0. 0. 1. 1. 1. 0. 0. 0. 0.
      0. 0. 0. 0. 0. 1. 1. 1. 0. 0. 0. 0. 0. 0. 49. 49. 49. 228. 228.
      228. 100. 100. 100. 0. 0. 0. 0. 0. 0. 4. 4. 4. 0. 0. 0. 0. 0. 0.
      0. 0. 0. 0. 0. 0. 0. 0. 0. 0. 0. 0. 0. 0. 0. 0. 0. 0. 0. 0. 0. 0.
      0. 0. 0. 0. 0. 0. 0. 0. 0. 0. 0. 5. 5. 5. 141. 141. 141. 197. 197.
      197. 14. 14. 14. 1. 1. 1. 2. 2. 2. 0. 0. 0. 1. 1. 1. 1. 1. 1. 0.
      0. 0. 0. 0. 0. 0. 0. 0. 0. 0. 0. 0. 0. 0. 0. 0. 0. 1. 1. 1. 0. 0.
      0. 0. 0. 0. 0. 0. 0. 2. 2. 2. 17. 17. 17. 225. 225. 225. 132. 132.
      132. 0. 0. 0. 0. 0. 0. 0. 0. 0. 0. 0. 0. 0. 0. 0. 0. 0. 0. 0. 0.
      0. 0. 0. 0. 0. 0. 0. 0. 0. 0. 1. 1. 1. 0. 0. 0. 1. 1. 1. 0. 0. 0.
      1. 1. 1. 0. 0. 0. 3. 3. 3. 24. 24. 24. 227. 227. 227. 104. 104.
      104. 2. 2. 2. 0. 0. 0. 3. 3. 3. 1. 1. 1. 0. 0. 0. 0. 0. 0. 0. 0.
      0. 0. 0. 0. 0. 0. 0. 0. 0. 0. 0. 0. 0. 0. 0. 0. 1. 1. 1. 0. 0. 0.
      1. 1. 1. 0. 0. 0. 1. 1. 1. 21. 21. 21. 218. 218. 218. 82. 82. 82.
      0. 0. 0. 3. 3. 3. 0. 0. 0. 3. 3. 3. 0. 0. 0. 0. 0. 0. 0. 0. 0. 0.
      0. 0. 0. 0. 0. 0. 0. 0. 1. 1. 1. 0. 0. 0. 1. 1. 1. 0. 0. 0. 1. 1.
      1. 0. 0. 0. 0. 0. 0. 15. 15. 15. 185. 185. 185. 83. 83. 83. 2. 2.
      2. 1. 1. 1. 0. 0. 0. 0. 0. 0. 3. 3. 3. 0. 0. 0. 0. 0. 0. 0. 0. 0.
      0. 0. 0. 0. 0. 0. 0. 0. 0. 0. 0. 0. 0. 0. 0. 0. 0. 0. 0. 0. 0. 0.
      0. 0. 1. 1. 1. 2. 2. 2. 174. 174. 174. 114. 114. 114. 0. 0. 0. 0.
      0. 0. 1. 1. 1. 0. 0. 0. 1. 1. 1. 0. 0. 0. 0. 0. 0. 0. 0. 0. 0. 0.
      0. 0. 0. 0. 0. 0. 0. 0. 0. 0. 0. 0. 0. 0. 0. 0. 0. 0. 0. 0. 0. 0.
      1. 1. 1. 1. 1. 1. 141. 141. 141. 92. 92. 92. 5. 5. 5. 0. 0. 0. 0.
      0. 0. 2. 2. 2. 1. 1. 1. 0. 0. 0. 0. 0. 0. 0. 0. 0. 0. 0. 0. 0. 0.
      0. 0. 0. 0. 0. 0. 0. 0. 0. 0. 0. 0. 0. 0. 0. 0. 0. 0. 0. 0. 0. 0.
      1. 1. 1. 3. 3. 3. 2. 2. 2. 0. 0. 0. 1. 1. 1. 0. 0. 0. 0. 0. 0. 0.
      0. 0. 4. 4. 4. 0. 0. 0. 0. 0. 0. 0. 0. 0. 0. 0. 0. 0. 0. 0. 0. 0.
      0. 0. 0. 0. 0. 0. 0. 0. 0. 0. 0. 0. 0. 0. 0. 0. 0. 0. 0. 1. 1. 1.
      0. 0. 0. 1. 1. 1. 0. 0. 0. 0. 0. 0. 3. 3. 3. 0. 0. 0. 0. 0. 0. 0.
      0. 0. 0. 0. 0. 0. 0. 0. 0. 0. 0.</_>
    <_>
      1. 1. 1. 0. 0. 0. 0. 0. 0. 0. 0. 0. 1. 1. 1. 1. 1. 1. 0. 0. 0. 0.
      0. 0. 0. 0. 0. 2. 2. 2. 2. 2. 2. 0. 0. 0. 0. 0. 0. 3. 3. 3. 0. 0.
      0. 2. 2. 2. 0. 0. 0. 0. 0. 0. 0. 0. 0. 0. 0. 0. 0. 0. 0. 0. 0. 0.
      0. 0. 0. 0. 0. 0. 0. 0. 0. 0. 0. 0. 0. 0. 0. 1. 1. 1. 3. 3. 3. 0.
      0. 0. 0. 0. 0. 2. 2. 2. 1. 1. 1. 0. 0. 0. 2. 2. 2. 0. 0. 0. 0. 0.
      0. 0. 0. 0. 0. 0. 0. 0. 0. 0. 0. 0. 0. 0. 0. 0. 0. 0. 0. 1. 1. 1.
      2. 2. 2. 1. 1. 1. 0. 0. 0. 1. 1. 1. 0. 0. 0. 1. 1. 1. 36. 36. 36.
      183. 183. 183. 77. 77. 77. 3. 3. 3. 3. 3. 3. 0. 0. 0. 0. 0. 0. 0.
      0. 0. 0. 0. 0. 0. 0. 0. 1. 1. 1. 0. 0. 0. 0. 0. 0. 0. 0. 0. 0. 0.
      0. 0. 0. 0. 0. 0. 0. 0. 0. 0. 0. 0. 0. 0. 0. 0. 68. 68. 68. 255.
      255. 255. 212. 212. 212. 0. 0. 0. 1. 1. 1. 3. 3. 3. 0. 0. 0. 0. 0.
      0. 0. 0. 0. 0. 0. 0. 0. 0. 0. 1. 1. 1. 1. 1. 1. 0. 0. 0. 0. 0. 0.
      0. 0. 0. 1. 1. 1. 2. 2. 2. 0. 0. 0. 0. 0. 0. 99. 99. 99. 255. 255.
      255. 176. 176. 176. 1. 1. 1. 0. 0. 0. 0. 0. 0. 0. 0. 0. 0. 0. 0.
      0. 0. 0. 0. 0. 0. 0. 0. 0. 0. 0. 0. 0. 0. 0. 0. 0. 0. 2. 2. 2. 2.
      2. 2. 0. 0. 0. 0. 0. 0. 3. 3. 3. 31. 31. 31. 199. 199. 199. 255.
      255. 255. 99. 99. 99. 0. 0. 0. 0. 0. 0. 2. 2. 2. 0. 0. 0. 0. 0. 0.
      0. 0. 0. 0. 0. 0. 2. 2. 2. 0. 0. 0. 0. 0. 0. 0. 0. 0. 0. 0. 0. 0.
      0. 0. 0. 0. 0. 1. 1. 1. 11. 11. 11. 172. 172. 172. 254. 254. 254.
      254. 254. 254. 95. 95. 95. 0. 0. 0. 3. 3. 3. 0. 0. 0. 0. 0. 0. 0.
      0. 0. 0. 0. 0. 0. 0. 0. 0. 0. 0. 0. 0. 0. 0. 0. 0. 1. 1. 1. 0. 0.
      0. 0. 0. 0. 15. 15. 15. 34. 34. 34. 169. 169. 169. 245. 245. 245.
      209. 209. 209. 253. 253. 253. 100. 100. 100. 0. 0. 0. 0. 0. 0. 1.
      1. 1. 0. 0. 0. 0. 0. 0. 0. 0. 0. 0. 0. 0. 0. 0. 0. 0. 0. 0. 3. 3.
      3. 0. 0. 0. 23. 23. 23. 142. 142. 142. 195. 195. 195. 246. 246.
      246. 202. 202. 202. 78. 78. 78. 89. 89. 89. 253. 253. 253. 96. 96.
      96. 3. 3. 3. 0. 0. 0. 0. 0. 0. 0. 0. 0. 0. 0. 0. 0. 0. 0. 0. 0. 0.
      3. 3. 3. 0. 0. 0. 0. 0. 0. 0. 0. 0. 11. 11. 11. 79. 79. 79. 113.
      113. 113. 82. 82. 82. 20. 20. 20. 3. 3. 3. 91. 91. 91. 255. 255.
      255. 108. 108. 108. 0. 0. 0. 4. 4. 4. 0. 0. 0. 0. 0. 0. 0. 0. 0.
      0. 0. 0. 0. 0. 0. 0. 0. 0. 0. 0. 0. 0. 0. 0. 0. 0. 0. 2. 2. 2. 0.
      0. 0. 0. 0. 0. 1. 1. 1. 0. 0. 0. 0. 0. 0. 70. 70. 70. 254. 254.
      254. 147. 147. 147. 6. 6. 6. 0. 0. 0. 1. 1. 1. 0. 0. 0. 0. 0. 0.
      0. 0. 0. 0. 0. 0. 0. 0. 0. 0. 0. 0. 2. 2. 2. 1. 1. 1. 0. 0. 0. 3.
      3. 3. 5. 5. 5. 0. 0. 0. 0. 0. 0. 0. 0. 0. 52. 52. 52. 246. 246.
      246. 102. 102. 102. 0. 0. 0. 0. 0. 0. 0. 0. 0. 0. 0. 0. 0. 0. 0.
      0. 0. 0. 0. 0. 0. 2. 2. 2. 1. 1. 1. 0. 0. 0. 0. 0. 0. 0. 0. 0. 1.
      1. 1. 0. 0. 0. 3. 3. 3. 3. 3. 3. 0. 0. 0. 35. 35. 35. 230. 230.
      230. 79. 79. 79. 1. 1. 1. 11. 11. 11. 8. 8. 8. 0. 0. 0. 0. 0. 0.
      0. 0. 0. 0. 0. 0. 0. 0. 0. 0. 0. 0. 3. 3. 3. 0. 0. 0. 0. 0. 0. 3.
      3. 3. 32. 32. 32. 120. 120. 120. 142. 142. 142. 137. 137. 137.
      129. 129. 129. 209. 209. 209. 168. 168. 168. 114. 114. 114. 190.
      190. 190. 83. 83. 83. 0. 0. 0. 0. 0. 0. 0. 0. 0. 0. 0. 0. 5. 5. 5.
      0. 0. 0. 0. 0. 0. 0. 0. 0. 18. 18. 18. 138. 138. 138. 228. 228.
      228. 253. 253. 253. 248. 248. 248. 237. 237. 237. 196. 196. 196.
      167. 167. 167. 174. 174. 174. 170. 170. 170. 167. 167. 167. 56.
      56. 56. 0. 0. 0. 0. 0. 0. 0. 0. 0. 0. 0. 0. 0. 0. 0. 1. 1. 1. 0.
      0. 0. 1. 1. 1. 71. 71. 71. 254. 254. 254. 235. 235. 235. 135. 135.
      135. 34. 34. 34. 6. 6. 6. 0. 0. 0. 3. 3. 3. 0. 0. 0. 1. 1. 1. 3.
      3. 3. 0. 0. 0. 0. 0. 0. 0. 0. 0. 0. 0. 0. 0. 0. 0. 0. 0. 0. 1. 1.
      1. 1. 1. 1. 0. 0. 0. 12. 12. 12. 82. 82. 82. 52. 52. 52. 0. 0. 0.
      0. 0. 0. 0. 0. 0. 0. 0. 0. 0. 0. 0. 0. 0. 0. 0. 0. 0. 0. 0. 0. 0.
      0. 0. 0. 0. 0. 0. 0. 0. 0. 0. 0. 0. 0. 0. 3. 3. 3. 0. 0. 0. 0. 0.
      0. 1. 1. 1. 0. 0. 0. 3. 3. 3. 0. 0. 0. 0. 0. 0. 0. 0. 0. 0. 0. 0.
      0. 0. 0. 0. 0. 0. 0. 0. 0. 0. 0. 0. 0. 0. 0. 0. 0. 0. 0. 0. 0. 0.
      0. 0. 0. 0. 0. 0. 0. 0. 0. 0. 0. 1. 1. 1. 1. 1. 1. 0. 0. 0. 2. 2.
      2. 0. 0. 0. 0. 0. 0. 2. 2. 2. 0. 0. 0. 0. 0. 0. 0. 0. 0. 0. 0. 0.
      0. 0. 0. 0. 0. 0. 0. 0. 0. 0. 0. 0. 0. 0. 0. 0. 0. 0. 0. 0. 0. 0.
      0. 0. 0. 0. 0. 4. 4. 4. 0. 0. 0. 0. 0. 0. 1. 1. 1. 1. 1. 1. 0. 0.
      0. 0. 0. 0. 0. 0. 0. 0. 0. 0. 0. 0. 0. 0. 0. 0. 0. 0. 0. 0. 0. 0.
      0. 0. 0. 0. 0. 0. 0. 0. 0. 0. 0. 0. 0. 0. 0. 0. 0. 0.</_>
    <_>
      1. 1. 1. 0. 0. 0. 0. 0. 0. 0. 0. 0. 0. 0. 0. 0. 0. 0. 0. 0. 0. 1.
      1. 1. 0. 0. 0. 0. 0. 0. 3. 3. 3. 0. 0. 0. 0. 0. 0. 1. 1. 1. 1. 1.
      1. 0. 0. 0. 0. 0. 0. 0. 0. 0. 0. 0. 0. 0. 0. 0. 0. 0. 0. 0. 0. 0.
      1. 1. 1. 1. 1. 1. 1. 1. 1. 0. 0. 0. 0. 0. 0. 0. 0. 0. 0. 0. 0. 0.
      0. 0. 0. 0. 0. 0. 0. 0. 4. 4. 4. 0. 0. 0. 0. 0. 0. 1. 1. 1. 0. 0.
      0. 0. 0. 0. 0. 0. 0. 0. 0. 0. 0. 0. 0. 0. 0. 0. 1. 1. 1. 0. 0. 0.
      0. 0. 0. 0. 0. 0. 0. 0. 0. 0. 0. 0. 0. 0. 0. 2. 2. 2. 2. 2. 2. 0.
      0. 0. 0. 0. 0. 3. 3. 3. 0. 0. 0. 0. 0. 0. 0. 0. 0. 0. 0. 0. 0. 0.
      0. 0. 0. 0. 0. 0. 0. 1. 1. 1. 0. 0. 0. 0. 0. 0. 0. 0. 0. 0. 0. 0.
      1. 1. 1. 1. 1. 1. 1. 1. 1. 15. 15. 15. 83. 83. 83. 33. 33. 33. 0.
      0. 0. 0. 0. 0. 0. 0. 0. 1. 1. 1. 0. 0. 0. 0. 0. 0. 0. 0. 0. 0. 0.
      0. 1. 1. 1. 1. 1. 1. 0. 0. 0. 0. 0. 0. 0. 0. 0. 1. 1. 1. 1. 1. 1.
      0. 0. 0. 19. 19. 19. 167. 167. 167. 254. 254. 254. 192. 192. 192.
      25. 25. 25. 0. 0. 0. 3. 3. 3. 0. 0. 0. 0. 0. 0. 0. 0. 0. 0. 0. 0.
      0. 0. 0. 0. 0. 0. 0. 0. 0. 0. 0. 0. 1. 1. 1. 1. 1. 1. 0. 0. 0. 0.
      0. 0. 0. 0. 0. 80. 80. 80. 246. 246. 246. 222. 222. 222. 203. 203.
      203. 43. 43. 43. 0. 0. 0. 1. 1. 1. 1. 1. 1. 0. 0. 0. 0. 0. 0. 0.
      0. 0. 0. 0. 0. 0. 0. 0. 0. 0. 0. 0. 0. 0. 1. 1. 1. 0. 0. 0. 0. 0.
      0. 0. 0. 0. 3. 3. 3. 130. 130. 130. 253. 253. 253. 96. 96. 96. 1.
      1. 1. 2. 2. 2. 1. 1. 1. 0. 0. 0. 0. 0. 0. 0. 0. 0. 0. 0. 0. 0. 0.
      0. 0. 0. 0. 1. 1. 1. 0. 0. 0. 0. 0. 0. 1. 1. 1. 0. 0. 0. 0. 0. 0.
      3. 3. 3. 10. 10. 10. 187. 187. 187. 248. 248. 248. 35. 35. 35. 0.
      0. 0. 0. 0. 0. 0. 0. 0. 1. 1. 1. 1. 1. 1. 0. 0. 0. 0. 0. 0. 0. 0.
      0. 0. 0. 0. 0. 0. 0. 0. 0. 0. 2. 2. 2. 0. 0. 0. 0. 0. 0. 0. 0. 0.
      1. 1. 1. 21. 21. 21. 215. 215. 215. 237. 237. 237. 7. 7. 7. 1. 1.
      1. 0. 0. 0. 2. 2. 2. 0. 0. 0. 0. 0. 0. 0. 0. 0. 0. 0. 0. 0. 0. 0.
      0. 0. 0. 1. 1. 1. 0. 0. 0. 1. 1. 1. 0. 0. 0. 0. 0. 0. 0. 0. 0. 0.
      0. 0. 21. 21. 21. 211. 211. 211. 238. 238. 238. 9. 9. 9. 0. 0. 0.
      0. 0. 0. 0. 0. 0. 2. 2. 2. 1. 1. 1. 0. 0. 0. 0. 0. 0. 0. 0. 0. 0.
      0. 0. 1. 1. 1. 0. 0. 0. 0. 0. 0. 0. 0. 0. 1. 1. 1. 0. 0. 0. 2. 2.
      2. 22. 22. 22. 212. 212. 212. 241. 241. 241. 4. 4. 4. 4. 4. 4. 3.
      3. 3. 0. 0. 0. 1. 1. 1. 0. 0. 0. 0. 0. 0. 0. 0. 0. 0. 0. 0. 0. 0.
      0. 0. 0. 0. 0. 0. 0. 0. 0. 0. 0. 0. 0. 1. 1. 1. 0. 0. 0. 2. 2. 2.
      16. 16. 16. 214. 214. 214. 240. 240. 240. 8. 8. 8. 0. 0. 0. 0. 0.
      0. 2. 2. 2. 0. 0. 0. 2. 2. 2. 0. 0. 0. 0. 0. 0. 0. 0. 0. 0. 0. 0.
      0. 0. 0. 1. 1. 1. 0. 0. 0. 0. 0. 0. 0. 0. 0. 0. 0. 0. 0. 0. 0. 4.
      4. 4. 146. 146. 146. 244. 244. 244. 50. 50. 50. 1. 1. 1. 1. 1. 1.
      0. 0. 0. 0. 0. 0. 0. 0. 0. 0. 0. 0. 0. 0. 0. 0. 0. 0. 0. 0. 0. 0.
      0. 0. 1. 1. 1. 0. 0. 0. 0. 0. 0. 0. 0. 0. 1. 1. 1. 0. 0. 0. 0. 0.
      0. 61. 61. 61. 245. 245. 245. 194. 194. 194. 7. 7. 7. 0. 0. 0. 1.
      1. 1. 1. 1. 1. 1. 1. 1. 0. 0. 0. 0. 0. 0. 0. 0. 0. 0. 0. 0. 0. 0.
      0. 0. 0. 0. 0. 0. 0. 0. 0. 0. 1. 1. 1. 1. 1. 1. 1. 1. 1. 0. 0. 0.
      10. 10. 10. 185. 185. 185. 255. 255. 255. 98. 98. 98. 1. 1. 1. 1.
      1. 1. 0. 0. 0. 0. 0. 0. 0. 0. 0. 0. 0. 0. 0. 0. 0. 0. 0. 0. 1. 1.
      1. 0. 0. 0. 0. 0. 0. 0. 0. 0. 0. 0. 0. 0. 0. 0. 0. 0. 0. 0. 0. 0.
      0. 0. 0. 41. 41. 41. 239. 239. 239. 247. 247. 247. 92. 92. 92. 1.
      1. 1. 0. 0. 0. 1. 1. 1. 0. 0. 0. 0. 0. 0. 0. 0. 0. 0. 0. 0. 0. 0.
      0. 0. 0. 0. 0. 0. 0. 0. 0. 0. 0. 0. 0. 0. 0. 0. 0. 0. 0. 0. 0. 0.
      1. 1. 1. 0. 0. 0. 75. 75. 75. 212. 212. 212. 225. 225. 225. 15.
      15. 15. 2. 2. 2. 0. 0. 0. 0. 0. 0. 0. 0. 0. 0. 0. 0. 0. 0. 0. 0.
      0. 0. 0. 0. 0. 0. 0. 0. 0. 0. 0. 0. 0. 0. 0. 0. 0. 0. 0. 0. 0. 0.
      0. 0. 0. 0. 1. 1. 1. 0. 0. 0. 40. 40. 40. 173. 173. 173. 18. 18.
      18. 0. 0. 0. 1. 1. 1. 0. 0. 0. 0. 0. 0. 0. 0. 0. 0. 0. 0. 0. 0. 0.
      0. 0. 0. 0. 0. 0. 0. 0. 0. 0. 0. 0. 0. 0. 0. 0. 0. 0. 0. 0. 0. 1.
      1. 1. 2. 2. 2. 1. 1. 1. 0. 0. 0. 0. 0. 0. 0. 0. 0. 1. 1. 1. 0. 0.
      0. 0. 0. 0. 0. 0. 0. 0. 0. 0. 0. 0. 0. 0. 0. 0. 0. 0. 0. 0. 0. 0.
      0. 0. 0. 0. 0. 0. 0. 0. 0. 0. 0. 0. 0. 0. 0. 0. 0. 0. 0. 0. 0. 2.
      2. 2. 3. 3. 3. 3. 3. 3. 0. 0. 0. 0. 0. 0. 3. 3. 3. 0. 0. 0. 0. 0.
      0. 0. 0. 0. 0. 0. 0.</_>
    <_>
      0. 0. 0. 0. 0. 0. 0. 0. 0. 1. 1. 1. 0. 0. 0. 2. 2. 2. 0. 0. 0. 0.
      0. 0. 0. 0. 0. 1. 1. 1. 3. 3. 3. 0. 0. 0. 1. 1. 1. 2. 2. 2. 0. 0.
      0. 1. 1. 1. 0. 0. 0. 0. 0. 0. 0. 0. 0. 0. 0. 0. 0. 0. 0. 4. 4. 4.
      0. 0. 0. 0. 0. 0. 2. 2. 2. 0. 0. 0. 0. 0. 0. 2. 2. 2. 1. 1. 1. 0.
      0. 0. 0. 0. 0. 4. 4. 4. 0. 0. 0. 0. 0. 0. 1. 1. 1. 0. 0. 0. 0. 0.
      0. 0. 0. 0. 0. 0. 0. 0. 0. 0. 1. 1. 1. 0. 0. 0. 4. 4. 4. 0. 0. 0.
      0. 0. 0. 2. 2. 2. 0. 0. 0. 0. 0. 0. 0. 0. 0. 2. 2. 2. 0. 0. 0. 1.
      1. 1. 1. 1. 1. 0. 0. 0. 4. 4. 4. 0. 0. 0. 0. 0. 0. 0. 0. 0. 0. 0.
      0. 0. 0. 0. 0. 0. 0. 2. 2. 2. 0. 0. 0. 1. 1. 1. 0. 0. 0. 0. 0. 0.
      1. 1. 1. 0. 0. 0. 3. 3. 3. 39. 39. 39. 77. 77. 77. 53. 53. 53. 2.
      2. 2. 2. 2. 2. 0. 0. 0. 0. 0. 0. 0. 0. 0. 0. 0. 0. 0. 0. 0. 0. 0.
      0. 0. 0. 0. 4. 4. 4. 0. 0. 0. 0. 0. 0. 2. 2. 2. 2. 2. 2. 0. 0. 0.
      93. 93. 93. 187. 187. 187. 220. 220. 220. 243. 243. 243. 228. 228.
      228. 113. 113. 113. 1. 1. 1. 1. 1. 1. 2. 2. 2. 0. 0. 0. 0. 0. 0.
      0. 0. 0. 0. 0. 0. 0. 0. 0. 0. 0. 0. 1. 1. 1. 0. 0. 0. 2. 2. 2. 0.
      0. 0. 30. 30. 30. 228. 228. 228. 255. 255. 255. 170. 170. 170. 70.
      70. 70. 97. 97. 97. 189. 189. 189. 75. 75. 75. 0. 0. 0. 0. 0. 0.
      0. 0. 0. 0. 0. 0. 0. 0. 0. 0. 0. 0. 0. 0. 0. 2. 2. 2. 0. 0. 0. 2.
      2. 2. 0. 0. 0. 2. 2. 2. 129. 129. 129. 234. 234. 234. 76. 76. 76.
      0. 0. 0. 0. 0. 0. 3. 3. 3. 54. 54. 54. 169. 169. 169. 19. 19. 19.
      0. 0. 0. 0. 0. 0. 0. 0. 0. 0. 0. 0. 0. 0. 0. 2. 2. 2. 0. 0. 0. 2.
      2. 2. 0. 0. 0. 0. 0. 0. 42. 42. 42. 234. 234. 234. 154. 154. 154.
      0. 0. 0. 3. 3. 3. 0. 0. 0. 0. 0. 0. 3. 3. 3. 137. 137. 137. 77.
      77. 77. 0. 0. 0. 0. 0. 0. 0. 0. 0. 0. 0. 0. 0. 0. 0. 3. 3. 3. 0.
      0. 0. 0. 0. 0. 1. 1. 1. 1. 1. 1. 97. 97. 97. 242. 242. 242. 42.
      42. 42. 0. 0. 0. 1. 1. 1. 0. 0. 0. 0. 0. 0. 0. 0. 0. 74. 74. 74.
      136. 136. 136. 2. 2. 2. 1. 1. 1. 0. 0. 0. 3. 3. 3. 0. 0. 0. 0. 0.
      0. 4. 4. 4. 4. 4. 4. 0. 0. 0. 0. 0. 0. 123. 123. 123. 201. 201.
      201. 13. 13. 13. 0. 0. 0. 0. 0. 0. 0. 0. 0. 3. 3. 3. 0. 0. 0. 0.
      0. 0. 150. 150. 150. 45. 45. 45. 0. 0. 0. 0. 0. 0. 0. 0. 0. 0. 0.
      0. 0. 0. 0. 0. 0. 0. 0. 0. 0. 0. 0. 0. 0. 0. 0. 170. 170. 170.
      105. 105. 105. 1. 1. 1. 1. 1. 1. 0. 0. 0. 3. 3. 3. 0. 0. 0. 0. 0.
      0. 3. 3. 3. 101. 101. 101. 95. 95. 95. 0. 0. 0. 3. 3. 3. 0. 0. 0.
      0. 0. 0. 2. 2. 2. 2. 2. 2. 0. 0. 0. 2. 2. 2. 7. 7. 7. 165. 165.
      165. 63. 63. 63. 1. 1. 1. 1. 1. 1. 0. 0. 0. 1. 1. 1. 0. 0. 0. 1.
      1. 1. 0. 0. 0. 36. 36. 36. 148. 148. 148. 1. 1. 1. 0. 0. 0. 1. 1.
      1. 2. 2. 2. 0. 0. 0. 1. 1. 1. 0. 0. 0. 1. 1. 1. 10. 10. 10. 162.
      162. 162. 58. 58. 58. 0. 0. 0. 0. 0. 0. 3. 3. 3. 0. 0. 0. 0. 0. 0.
      0. 0. 0. 2. 2. 2. 9. 9. 9. 182. 182. 182. 34. 34. 34. 0. 0. 0. 1.
      1. 1. 0. 0. 0. 2. 2. 2. 0. 0. 0. 0. 0. 0. 3. 3. 3. 17. 17. 17.
      187. 187. 187. 24. 24. 24. 2. 2. 2. 1. 1. 1. 0. 0. 0. 0. 0. 0. 1.
      1. 1. 3. 3. 3. 0. 0. 0. 10. 10. 10. 187. 187. 187. 52. 52. 52. 3.
      3. 3. 0. 0. 0. 0. 0. 0. 0. 0. 0. 0. 0. 0. 2. 2. 2. 0. 0. 0. 14.
      14. 14. 159. 159. 159. 31. 31. 31. 0. 0. 0. 1. 1. 1. 1. 1. 1. 0.
      0. 0. 0. 0. 0. 2. 2. 2. 0. 0. 0. 30. 30. 30. 190. 190. 190. 20.
      20. 20. 0. 0. 0. 0. 0. 0. 2. 2. 2. 0. 0. 0. 0. 0. 0. 0. 0. 0. 2.
      2. 2. 0. 0. 0. 140. 140. 140. 111. 111. 111. 0. 0. 0. 0. 0. 0. 1.
      1. 1. 1. 1. 1. 0. 0. 0. 0. 0. 0. 14. 14. 14. 174. 174. 174. 137.
      137. 137. 0. 0. 0. 2. 2. 2. 1. 1. 1. 0. 0. 0. 0. 0. 0. 0. 0. 0. 2.
      2. 2. 0. 0. 0. 2. 2. 2. 23. 23. 23. 125. 125. 125. 128. 128. 128.
      33. 33. 33. 28. 28. 28. 26. 26. 26. 31. 31. 31. 89. 89. 89. 188.
      188. 188. 153. 153. 153. 24. 24. 24. 0. 0. 0. 0. 0. 0. 0. 0. 0. 0.
      0. 0. 1. 1. 1. 1. 1. 1. 0. 0. 0. 1. 1. 1. 0. 0. 0. 1. 1. 1. 5. 5.
      5. 81. 81. 81. 122. 122. 122. 157. 157. 157. 190. 190. 190. 133.
      133. 133. 89. 89. 89. 69. 69. 69. 1. 1. 1. 0. 0. 0. 0. 0. 0. 0. 0.
      0. 0. 0. 0. 0. 0. 0. 3. 3. 3. 0. 0. 0. 0. 0. 0. 1. 1. 1. 0. 0. 0.
      0. 0. 0. 5. 5. 5. 0. 0. 0. 0. 0. 0. 0. 0. 0. 0. 0. 0. 5. 5. 5. 0.
      0. 0. 0. 0. 0. 1. 1. 1. 1. 1. 1. 0. 0. 0. 0. 0. 0. 0. 0. 0. 0. 0.
      0. 0. 0. 0. 0. 0. 0. 4. 4. 4. 2. 2. 2. 1. 1. 1. 0. 0. 0. 0. 0. 0.
      0. 0. 0. 0. 0. 0. 3. 3. 3. 0. 0. 0. 0. 0. 0. 0. 0. 0. 1. 1. 1. 0.
      0. 0. 3. 3. 3. 0. 0. 0. 0. 0. 0. 0. 0. 0. 0. 0. 0.</_>
    <_>
      0. 0. 0. 0. 0. 0. 0. 0. 0. 0. 0. 0. 0. 0. 0. 0. 0. 0. 0. 0. 0. 0.
      0. 0. 1. 1. 1. 0. 0. 0. 0. 0. 0. 2. 2. 2. 0. 0. 0. 1. 1. 1. 1. 1.
      1. 0. 0. 0. 1. 1. 1. 1. 1. 1. 0. 0. 0. 0. 0. 0. 0. 0. 0. 0. 0. 0.
      0. 0. 0. 0. 0. 0. 0. 0. 0. 0. 0. 0. 0. 0. 0. 0. 0. 0. 0. 0. 0. 2.
      2. 2. 0. 0. 0. 0. 0. 0. 1. 1. 1. 0. 0. 0. 0. 0. 0. 2. 2. 2. 0. 0.
      0. 0. 0. 0. 2. 2. 2. 0. 0. 0. 0. 0. 0. 0. 0. 0. 0. 0. 0. 0. 0. 0.
      0. 0. 0. 1. 1. 1. 1. 1. 1. 0. 0. 0. 0. 0. 0. 1. 1. 1. 0. 0. 0. 0.
      0. 0. 0. 0. 0. 4. 4. 4. 1. 1. 1. 0. 0. 0. 4. 4. 4. 0. 0. 0. 1. 1.
      1. 1. 1. 1. 0. 0. 0. 0. 0. 0. 0. 0. 0. 0. 0. 0. 0. 0. 0. 1. 1. 1.
      0. 0. 0. 0. 0. 0. 0. 0. 0. 2. 2. 2. 0. 0. 0. 2. 2. 2. 49. 49. 49.
      72. 72. 72. 104. 104. 104. 39. 39. 39. 0. 0. 0. 0. 0. 0. 0. 0. 0.
      2. 2. 2. 0. 0. 0. 0. 0. 0. 0. 0. 0. 0. 0. 0. 0. 0. 0. 0. 0. 0. 0.
      0. 0. 0. 0. 0. 0. 0. 0. 0. 0. 0. 59. 59. 59. 163. 163. 163. 219.
      219. 219. 245. 245. 245. 255. 255. 255. 177. 177. 177. 3. 3. 3. 3.
      3. 3. 0. 0. 0. 0. 0. 0. 0. 0. 0. 0. 0. 0. 0. 0. 0. 0. 0. 0. 0. 0.
      0. 0. 0. 0. 0. 0. 0. 0. 0. 0. 2. 2. 2. 133. 133. 133. 237. 237.
      237. 147. 147. 147. 153. 153. 153. 255. 255. 255. 206. 206. 206.
      205. 205. 205. 56. 56. 56. 1. 1. 1. 0. 0. 0. 1. 1. 1. 0. 0. 0. 0.
      0. 0. 0. 0. 0. 0. 0. 0. 0. 0. 0. 0. 0. 0. 1. 1. 1. 2. 2. 2. 96.
      96. 96. 220. 220. 220. 65. 65. 65. 122. 122. 122. 255. 255. 255.
      133. 133. 133. 18. 18. 18. 200. 200. 200. 90. 90. 90. 0. 0. 0. 0.
      0. 0. 3. 3. 3. 0. 0. 0. 0. 0. 0. 0. 0. 0. 0. 0. 0. 0. 0. 0. 0. 0.
      0. 2. 2. 2. 4. 4. 4. 157. 157. 157. 77. 77. 77. 99. 99. 99. 243.
      243. 243. 134. 134. 134. 0. 0. 0. 22. 22. 22. 220. 220. 220. 70.
      70. 70. 1. 1. 1. 1. 1. 1. 0. 0. 0. 0. 0. 0. 2. 2. 2. 0. 0. 0. 0.
      0. 0. 1. 1. 1. 1. 1. 1. 0. 0. 0. 0. 0. 0. 27. 27. 27. 110. 110.
      110. 233. 233. 233. 125. 125. 125. 0. 0. 0. 1. 1. 1. 78. 78. 78.
      166. 166. 166. 2. 2. 2. 1. 1. 1. 1. 1. 1. 0. 0. 0. 2. 2. 2. 0. 0.
      0. 0. 0. 0. 1. 1. 1. 0. 0. 0. 0. 0. 0. 0. 0. 0. 1. 1. 1. 31. 31.
      31. 219. 219. 219. 163. 163. 163. 0. 0. 0. 3. 3. 3. 7. 7. 7. 179.
      179. 179. 91. 91. 91. 1. 1. 1. 1. 1. 1. 0. 0. 0. 0. 0. 0. 0. 0. 0.
      2. 2. 2. 0. 0. 0. 3. 3. 3. 0. 0. 0. 2. 2. 2. 0. 0. 0. 18. 18. 18.
      215. 215. 215. 207. 207. 207. 6. 6. 6. 1. 1. 1. 0. 0. 0. 99. 99.
      99. 212. 212. 212. 9. 9. 9. 0. 0. 0. 0. 0. 0. 0. 0. 0. 0. 0. 0. 0.
      0. 0. 1. 1. 1. 1. 1. 1. 0. 0. 0. 0. 0. 0. 1. 1. 1. 2. 2. 2. 134.
      134. 134. 247. 247. 247. 83. 83. 83. 1. 1. 1. 0. 0. 0. 3. 3. 3.
      174. 174. 174. 174. 174. 174. 0. 0. 0. 0. 0. 0. 0. 0. 0. 0. 0. 0.
      0. 0. 0. 1. 1. 1. 0. 0. 0. 2. 2. 2. 4. 4. 4. 0. 0. 0. 0. 0. 0. 87.
      87. 87. 246. 246. 246. 108. 108. 108. 2. 2. 2. 0. 0. 0. 1. 1. 1.
      36. 36. 36. 243. 243. 243. 87. 87. 87. 2. 2. 2. 0. 0. 0. 0. 0. 0.
      0. 0. 0. 0. 0. 0. 0. 0. 0. 5. 5. 5. 0. 0. 0. 0. 0. 0. 2. 2. 2. 63.
      63. 63. 236. 236. 236. 135. 135. 135. 0. 0. 0. 1. 1. 1. 0. 0. 0.
      50. 50. 50. 183. 183. 183. 127. 127. 127. 3. 3. 3. 0. 0. 0. 0. 0.
      0. 0. 0. 0. 0. 0. 0. 0. 0. 0. 3. 3. 3. 0. 0. 0. 1. 1. 1. 2. 2. 2.
      11. 11. 11. 230. 230. 230. 161. 161. 161. 0. 0. 0. 0. 0. 0. 0. 0.
      0. 51. 51. 51. 229. 229. 229. 183. 183. 183. 8. 8. 8. 1. 1. 1. 0.
      0. 0. 0. 0. 0. 0. 0. 0. 0. 0. 0. 0. 0. 0. 0. 0. 0. 0. 0. 0. 2. 2.
      2. 2. 2. 2. 142. 142. 142. 206. 206. 206. 21. 21. 21. 0. 0. 0. 14.
      14. 14. 128. 128. 128. 225. 225. 225. 162. 162. 162. 13. 13. 13.
      0. 0. 0. 0. 0. 0. 3. 3. 3. 0. 0. 0. 0. 0. 0. 0. 0. 0. 0. 0. 0. 1.
      1. 1. 0. 0. 0. 0. 0. 0. 48. 48. 48. 232. 232. 232. 132. 132. 132.
      49. 49. 49. 102. 102. 102. 201. 201. 201. 244. 244. 244. 133. 133.
      133. 10. 10. 10. 0. 0. 0. 0. 0. 0. 1. 1. 1. 0. 0. 0. 0. 0. 0. 0.
      0. 0. 0. 0. 0. 0. 0. 0. 0. 0. 0. 0. 0. 0. 0. 0. 0. 103. 103. 103.
      227. 227. 227. 200. 200. 200. 198. 198. 198. 217. 217. 217. 186.
      186. 186. 51. 51. 51. 0. 0. 0. 0. 0. 0. 0. 0. 0. 1. 1. 1. 0. 0. 0.
      2. 2. 2. 0. 0. 0. 0. 0. 0. 0. 0. 0. 0. 0. 0. 2. 2. 2. 1. 1. 1. 5.
      5. 5. 2. 2. 2. 0. 0. 0. 2. 2. 2. 0. 0. 0. 0. 0. 0. 0. 0. 0. 0. 0.
      0. 2. 2. 2. 0. 0. 0. 3. 3. 3. 1. 1. 1. 0. 0. 0. 1. 1. 1. 0. 0. 0.
      0. 0. 0. 0. 0. 0. 0. 0. 0. 1. 1. 1. 0. 0. 0. 0. 0. 0. 0. 0. 0. 0.
      0. 0. 0. 0. 0. 1. 1. 1. 1. 1. 1. 1. 1. 1. 0. 0. 0. 0. 0. 0. 0. 0.
      0. 1. 1. 1. 0. 0. 0. 0. 0. 0. 1. 1. 1. 0. 0. 0. 0. 0. 0. 0. 0. 0.
      0. 0. 0.</_>
    <_>
      0. 0. 0. 0. 0. 0. 0. 0. 0. 0. 0. 0. 0. 0. 0. 0. 0. 0. 0. 0. 0. 0.
      0. 0. 1. 1. 1. 0. 0. 0. 0. 0. 0. 2. 2. 2. 0. 0. 0. 0. 0. 0. 2. 2.
      2. 0. 0. 0. 0. 0. 0. 0. 0. 0. 0. 0. 0. 0. 0. 0. 0. 0. 0. 0. 0. 0.
      0. 0. 0. 0. 0. 0. 0. 0. 0. 0. 0. 0. 0. 0. 0. 0. 0. 0. 0. 0. 0. 0.
      0. 0. 2. 2. 2. 0. 0. 0. 1. 1. 1. 3. 3. 3. 0. 0. 0. 2. 2. 2. 0. 0.
      0. 0. 0. 0. 0. 0. 0. 0. 0. 0. 0. 0. 0. 0. 0. 0. 0. 0. 0. 0. 0. 0.
      0. 0. 0. 0. 0. 0. 0. 0. 0. 0. 0. 0. 1. 1. 1. 10. 10. 10. 39. 39.
      39. 25. 25. 25. 0. 0. 0. 0. 0. 0. 1. 1. 1. 0. 0. 0. 0. 0. 0. 0. 0.
      0. 0. 0. 0. 0. 0. 0. 0. 0. 0. 0. 0. 0. 0. 0. 0. 0. 0. 0. 0. 0. 0.
      0. 0. 0. 0. 0. 0. 0. 0. 0. 0. 0. 0. 71. 71. 71. 252. 252. 252.
      228. 228. 228. 68. 68. 68. 6. 6. 6. 0. 0. 0. 0. 0. 0. 0. 0. 0. 0.
      0. 0. 0. 0. 0. 0. 0. 0. 0. 0. 0. 0. 0. 0. 0. 0. 0. 0. 0. 0. 0. 0.
      0. 0. 0. 0. 0. 0. 0. 0. 0. 0. 2. 2. 2. 70. 70. 70. 249. 249. 249.
      254. 254. 254. 172. 172. 172. 0. 0. 0. 2. 2. 2. 2. 2. 2. 0. 0. 0.
      0. 0. 0. 0. 0. 0. 0. 0. 0. 0. 0. 0. 0. 0. 0. 0. 0. 0. 0. 0. 0. 0.
      0. 0. 0. 0. 0. 0. 0. 0. 0. 0. 0. 0. 0. 0. 69. 69. 69. 249. 249.
      249. 254. 254. 254. 181. 181. 181. 0. 0. 0. 0. 0. 0. 0. 0. 0. 0.
      0. 0. 0. 0. 0. 0. 0. 0. 0. 0. 0. 0. 0. 0. 0. 0. 0. 0. 0. 0. 0. 0.
      0. 0. 0. 0. 0. 0. 0. 0. 0. 0. 0. 0. 0. 0. 0. 0. 98. 98. 98. 254.
      254. 254. 255. 255. 255. 175. 175. 175. 4. 4. 4. 0. 0. 0. 1. 1. 1.
      0. 0. 0. 0. 0. 0. 0. 0. 0. 0. 0. 0. 0. 0. 0. 0. 0. 0. 0. 0. 0. 0.
      0. 0. 0. 0. 0. 0. 0. 0. 0. 0. 0. 0. 0. 0. 72. 72. 72. 226. 226.
      226. 254. 254. 254. 254. 254. 254. 197. 197. 197. 9. 9. 9. 0. 0.
      0. 1. 1. 1. 0. 0. 0. 0. 0. 0. 0. 0. 0. 0. 0. 0. 0. 0. 0. 2. 2. 2.
      0. 0. 0. 1. 1. 1. 0. 0. 0. 0. 0. 0. 0. 0. 0. 5. 5. 5. 170. 170.
      170. 255. 255. 255. 255. 255. 255. 252. 252. 252. 224. 224. 224.
      47. 47. 47. 0. 0. 0. 0. 0. 0. 0. 0. 0. 0. 0. 0. 0. 0. 0. 0. 0. 0.
      0. 0. 0. 2. 2. 2. 3. 3. 3. 2. 2. 2. 0. 0. 0. 4. 4. 4. 0. 0. 0. 75.
      75. 75. 241. 241. 241. 196. 196. 196. 118. 118. 118. 255. 255.
      255. 182. 182. 182. 0. 0. 0. 0. 0. 0. 2. 2. 2. 0. 0. 0. 0. 0. 0.
      0. 0. 0. 0. 0. 0. 1. 1. 1. 0. 0. 0. 0. 0. 0. 2. 2. 2. 3. 3. 3. 0.
      0. 0. 14. 14. 14. 196. 196. 196. 253. 253. 253. 165. 165. 165. 66.
      66. 66. 253. 253. 253. 207. 207. 207. 27. 27. 27. 0. 0. 0. 0. 0.
      0. 0. 0. 0. 0. 0. 0. 0. 0. 0. 0. 0. 0. 3. 3. 3. 0. 0. 0. 3. 3. 3.
      0. 0. 0. 0. 0. 0. 0. 0. 0. 74. 74. 74. 244. 244. 244. 255. 255.
      255. 93. 93. 93. 58. 58. 58. 255. 255. 255. 175. 175. 175. 1. 1.
      1. 3. 3. 3. 0. 0. 0. 0. 0. 0. 0. 0. 0. 0. 0. 0. 0. 0. 0. 0. 0. 0.
      0. 0. 0. 0. 0. 0. 2. 2. 2. 0. 0. 0. 1. 1. 1. 6. 6. 6. 196. 196.
      196. 255. 255. 255. 118. 118. 118. 155. 155. 155. 255. 255. 255.
      229. 229. 229. 45. 45. 45. 0. 0. 0. 0. 0. 0. 0. 0. 0. 0. 0. 0. 0.
      0. 0. 0. 0. 0. 0. 0. 0. 5. 5. 5. 0. 0. 0. 0. 0. 0. 5. 5. 5. 0. 0.
      0. 0. 0. 0. 177. 177. 177. 255. 255. 255. 77. 77. 77. 179. 179.
      179. 254. 254. 254. 151. 151. 151. 16. 16. 16. 0. 0. 0. 0. 0. 0.
      0. 0. 0. 0. 0. 0. 0. 0. 0. 0. 0. 0. 0. 0. 0. 0. 0. 0. 0. 0. 0. 0.
      0. 0. 0. 0. 0. 1. 1. 1. 1. 1. 1. 181. 181. 181. 253. 253. 253.
      208. 208. 208. 238. 238. 238. 231. 231. 231. 34. 34. 34. 3. 3. 3.
      0. 0. 0. 2. 2. 2. 0. 0. 0. 0. 0. 0. 0. 0. 0. 0. 0. 0. 0. 0. 0. 0.
      0. 0. 1. 1. 1. 0. 0. 0. 2. 2. 2. 1. 1. 1. 0. 0. 0. 188. 188. 188.
      255. 255. 255. 255. 255. 255. 255. 255. 255. 164. 164. 164. 5. 5.
      5. 1. 1. 1. 2. 2. 2. 0. 0. 0. 0. 0. 0. 0. 0. 0. 0. 0. 0. 0. 0. 0.
      0. 0. 0. 0. 0. 0. 1. 1. 1. 2. 2. 2. 0. 0. 0. 1. 1. 1. 2. 2. 2.
      105. 105. 105. 188. 188. 188. 251. 251. 251. 183. 183. 183. 68.
      68. 68. 0. 0. 0. 2. 2. 2. 1. 1. 1. 0. 0. 0. 0. 0. 0. 0. 0. 0. 0.
      0. 0. 0. 0. 0. 1. 1. 1. 5. 5. 5. 0. 0. 0. 1. 1. 1. 0. 0. 0. 0. 0.
      0. 0. 0. 0. 1. 1. 1. 15. 15. 15. 34. 34. 34. 11. 11. 11. 0. 0. 0.
      0. 0. 0. 0. 0. 0. 0. 0. 0. 4. 4. 4. 0. 0. 0. 0. 0. 0. 0. 0. 0. 0.
      0. 0. 0. 0. 0. 0. 0. 0. 0. 0. 0. 1. 1. 1. 2. 2. 2. 1. 1. 1. 3. 3.
      3. 0. 0. 0. 0. 0. 0. 1. 1. 1. 0. 0. 0. 0. 0. 0. 3. 3. 3. 1. 1. 1.
      0. 0. 0. 0. 0. 0. 0. 0. 0. 0. 0. 0. 0. 0. 0. 0. 0. 0. 0. 0. 0. 0.
      0. 0. 4. 4. 4. 0. 0. 0. 0. 0. 0. 0. 0. 0. 0. 0. 0. 4. 4. 4. 0. 0.
      0. 0. 0. 0. 3. 3. 3. 0. 0. 0. 0. 0. 0. 0. 0. 0. 2. 2. 2. 0. 0. 0.
      0. 0. 0. 0. 0. 0. 0. 0. 0. 0. 0. 0.</_>
    <_>
      1. 1. 1. 0. 0. 0. 0. 0. 0. 2. 2. 2. 0. 0. 0. 0. 0. 0. 0. 0. 0. 1.
      1. 1. 1. 1. 1. 0. 0. 0. 0. 0. 0. 3. 3. 3. 0. 0. 0. 0. 0. 0. 2. 2.
      2. 0. 0. 0. 0. 0. 0. 1. 1. 1. 1. 1. 1. 0. 0. 0. 0. 0. 0. 0. 0. 0.
      0. 0. 0. 3. 3. 3. 3. 3. 3. 0. 0. 0. 1. 1. 1. 0. 0. 0. 0. 0. 0. 0.
      0. 0. 5. 5. 5. 0. 0. 0. 0. 0. 0. 1. 1. 1. 0. 0. 0. 0. 0. 0. 3. 3.
      3. 0. 0. 0. 1. 1. 1. 4. 4. 4. 0. 0. 0. 3. 3. 3. 1. 1. 1. 0. 0. 0.
      0. 0. 0. 0. 0. 0. 0. 0. 0. 2. 2. 2. 0. 0. 0. 1. 1. 1. 0. 0. 0. 0.
      0. 0. 4. 4. 4. 0. 0. 0. 0. 0. 0. 2. 2. 2. 0. 0. 0. 3. 3. 3. 1. 1.
      1. 0. 0. 0. 0. 0. 0. 0. 0. 0. 1. 1. 1. 0. 0. 0. 1. 1. 1. 1. 1. 1.
      0. 0. 0. 0. 0. 0. 0. 0. 0. 1. 1. 1. 2. 2. 2. 0. 0. 0. 0. 0. 0. 0.
      0. 0. 0. 0. 0. 0. 0. 0. 1. 1. 1. 1. 1. 1. 0. 0. 0. 1. 1. 1. 0. 0.
      0. 1. 1. 1. 0. 0. 0. 4. 4. 4. 0. 0. 0. 0. 0. 0. 6. 6. 6. 0. 0. 0.
      1. 1. 1. 0. 0. 0. 0. 0. 0. 0. 0. 0. 0. 0. 0. 7. 7. 7. 2. 2. 2. 3.
      3. 3. 0. 0. 0. 0. 0. 0. 1. 1. 1. 2. 2. 2. 1. 1. 1. 0. 0. 0. 2. 2.
      2. 0. 0. 0. 1. 1. 1. 1. 1. 1. 0. 0. 0. 53. 53. 53. 102. 102. 102.
      56. 56. 56. 1. 1. 1. 67. 67. 67. 122. 122. 122. 156. 156. 156.
      180. 180. 180. 83. 83. 83. 9. 9. 9. 0. 0. 0. 0. 0. 0. 0. 0. 0. 0.
      0. 0. 0. 0. 0. 2. 2. 2. 1. 1. 1. 2. 2. 2. 75. 75. 75. 171. 171.
      171. 240. 240. 240. 207. 207. 207. 61. 61. 61. 27. 27. 27. 178.
      178. 178. 103. 103. 103. 62. 62. 62. 122. 122. 122. 222. 222. 222.
      109. 109. 109. 5. 5. 5. 0. 0. 0. 4. 4. 4. 0. 0. 0. 1. 1. 1. 0. 0.
      0. 1. 1. 1. 96. 96. 96. 248. 248. 248. 203. 203. 203. 76. 76. 76.
      15. 15. 15. 0. 0. 0. 12. 12. 12. 63. 63. 63. 3. 3. 3. 0. 0. 0. 3.
      3. 3. 76. 76. 76. 223. 223. 223. 48. 48. 48. 1. 1. 1. 0. 0. 0. 0.
      0. 0. 0. 0. 0. 0. 0. 0. 78. 78. 78. 250. 250. 250. 135. 135. 135.
      11. 11. 11. 0. 0. 0. 2. 2. 2. 0. 0. 0. 0. 0. 0. 2. 2. 2. 0. 0. 0.
      0. 0. 0. 0. 0. 0. 19. 19. 19. 201. 201. 201. 133. 133. 133. 1. 1.
      1. 1. 1. 1. 2. 2. 2. 0. 0. 0. 2. 2. 2. 113. 113. 113. 253. 253.
      253. 9. 9. 9. 0. 0. 0. 2. 2. 2. 0. 0. 0. 2. 2. 2. 0. 0. 0. 0. 0.
      0. 1. 1. 1. 0. 0. 0. 0. 0. 0. 1. 1. 1. 163. 163. 163. 212. 212.
      212. 2. 2. 2. 0. 0. 0. 0. 0. 0. 0. 0. 0. 0. 0. 0. 107. 107. 107.
      255. 255. 255. 5. 5. 5. 0. 0. 0. 0. 0. 0. 2. 2. 2. 0. 0. 0. 4. 4.
      4. 1. 1. 1. 1. 1. 1. 0. 0. 0. 2. 2. 2. 0. 0. 0. 163. 163. 163.
      217. 217. 217. 0. 0. 0. 0. 0. 0. 0. 0. 0. 4. 4. 4. 0. 0. 0. 69.
      69. 69. 231. 231. 231. 44. 44. 44. 2. 2. 2. 0. 0. 0. 0. 0. 0. 0.
      0. 0. 0. 0. 0. 0. 0. 0. 0. 0. 0. 1. 1. 1. 0. 0. 0. 27. 27. 27.
      212. 212. 212. 150. 150. 150. 3. 3. 3. 0. 0. 0. 0. 0. 0. 0. 0. 0.
      0. 0. 0. 9. 9. 9. 181. 181. 181. 174. 174. 174. 0. 0. 0. 3. 3. 3.
      0. 0. 0. 3. 3. 3. 1. 1. 1. 0. 0. 0. 2. 2. 2. 0. 0. 0. 0. 0. 0.
      130. 130. 130. 216. 216. 216. 30. 30. 30. 0. 0. 0. 4. 4. 4. 0. 0.
      0. 1. 1. 1. 0. 0. 0. 3. 3. 3. 39. 39. 39. 189. 189. 189. 113. 113.
      113. 24. 24. 24. 0. 0. 0. 1. 1. 1. 0. 0. 0. 0. 0. 0. 0. 0. 0. 7.
      7. 7. 111. 111. 111. 229. 229. 229. 78. 78. 78. 0. 0. 0. 2. 2. 2.
      0. 0. 0. 1. 1. 1. 1. 1. 1. 2. 2. 2. 0. 0. 0. 0. 0. 0. 48. 48. 48.
      202. 202. 202. 202. 202. 202. 117. 117. 117. 30. 30. 30. 12. 12.
      12. 32. 32. 32. 98. 98. 98. 184. 184. 184. 202. 202. 202. 60. 60.
      60. 2. 2. 2. 0. 0. 0. 1. 1. 1. 0. 0. 0. 0. 0. 0. 1. 1. 1. 0. 0. 0.
      2. 2. 2. 0. 0. 0. 0. 0. 0. 29. 29. 29. 111. 111. 111. 161. 161.
      161. 183. 183. 183. 191. 191. 191. 191. 191. 191. 187. 187. 187.
      120. 120. 120. 18. 18. 18. 0. 0. 0. 0. 0. 0. 3. 3. 3. 0. 0. 0. 3.
      3. 3. 0. 0. 0. 0. 0. 0. 0. 0. 0. 0. 0. 0. 0. 0. 0. 0. 0. 0. 0. 0.
      0. 0. 0. 0. 2. 2. 2. 9. 9. 9. 15. 15. 15. 13. 13. 13. 6. 6. 6. 0.
      0. 0. 0. 0. 0. 1. 1. 1. 0. 0. 0. 0. 0. 0. 0. 0. 0. 0. 0. 0. 0. 0.
      0. 0. 0. 0. 0. 0. 0. 0. 0. 0. 0. 0. 0. 0. 0. 0. 0. 0. 0. 0. 0. 0.
      0. 0. 0. 0. 0. 0. 1. 1. 1. 2. 2. 2. 0. 0. 0. 0. 0. 0. 0. 0. 0. 0.
      0. 0. 0. 0. 0. 0. 0. 0. 0. 0. 0. 0. 0. 0. 0. 0. 0. 0. 0. 0. 0. 0.
      0. 0. 0. 0. 0. 0. 0. 0. 0. 0. 0. 0. 0. 0. 0. 0. 0. 0. 0. 0. 0. 0.
      0. 0. 0. 0. 0. 0. 0. 0. 0. 1. 1. 1. 1. 1. 1. 1. 1. 1. 0. 0. 0. 0.
      0. 0. 0. 0. 0. 0. 0. 0. 0. 0. 0. 0. 0. 0. 0. 0. 0. 0. 0. 0. 0. 0.
      0. 0. 0. 0. 0. 0. 0. 0. 0. 0. 0. 0. 0. 1. 1. 1. 1. 1. 1. 1. 1. 1.
      0. 0. 0. 0. 0. 0. 0. 0. 0. 0. 0. 0. 0. 0. 0. 0. 0. 0. 0. 0. 0. 0.
      0. 0.</_>
    <_>
      1. 1. 1. 0. 0. 0. 1. 1. 1. 1. 1. 1. 1. 1. 1. 0. 0. 0. 0. 0. 0. 1.
      1. 1. 0. 0. 0. 2. 2. 2. 0. 0. 0. 0. 0. 0. 3. 3. 3. 0. 0. 0. 2. 2.
      2. 0. 0. 0. 0. 0. 0. 0. 0. 0. 0. 0. 0. 0. 0. 0. 0. 0. 0. 3. 3. 3.
      0. 0. 0. 1. 1. 1. 0. 0. 0. 2. 2. 2. 0. 0. 0. 1. 1. 1. 0. 0. 0. 1.
      1. 1. 0. 0. 0. 0. 0. 0. 0. 0. 0. 0. 0. 0. 0. 0. 0. 1. 1. 1. 0. 0.
      0. 0. 0. 0. 0. 0. 0. 0. 0. 0. 0. 0. 0. 1. 1. 1. 0. 0. 0. 1. 1. 1.
      0. 0. 0. 0. 0. 0. 4. 4. 4. 0. 0. 0. 3. 3. 3. 0. 0. 0. 0. 0. 0. 19.
      19. 19. 19. 19. 19. 23. 23. 23. 8. 8. 8. 0. 0. 0. 0. 0. 0. 0. 0.
      0. 0. 0. 0. 0. 0. 0. 1. 1. 1. 0. 0. 0. 2. 2. 2. 0. 0. 0. 0. 0. 0.
      1. 1. 1. 0. 0. 0. 5. 5. 5. 0. 0. 0. 37. 37. 37. 146. 146. 146.
      203. 203. 203. 209. 209. 209. 235. 235. 235. 130. 130. 130. 1. 1.
      1. 0. 0. 0. 0. 0. 0. 0. 0. 0. 0. 0. 0. 0. 0. 0. 0. 0. 0. 1. 1. 1.
      0. 0. 0. 1. 1. 1. 2. 2. 2. 0. 0. 0. 0. 0. 0. 67. 67. 67. 210. 210.
      210. 234. 234. 234. 149. 149. 149. 140. 140. 140. 222. 222. 222.
      235. 235. 235. 36. 36. 36. 0. 0. 0. 0. 0. 0. 0. 0. 0. 0. 0. 0. 1.
      1. 1. 0. 0. 0. 1. 1. 1. 0. 0. 0. 1. 1. 1. 0. 0. 0. 0. 0. 0. 78.
      78. 78. 244. 244. 244. 213. 213. 213. 52. 52. 52. 4. 4. 4. 0. 0.
      0. 81. 81. 81. 245. 245. 245. 65. 65. 65. 0. 0. 0. 0. 0. 0. 0. 0.
      0. 0. 0. 0. 0. 0. 0. 0. 0. 0. 0. 0. 0. 0. 0. 0. 0. 0. 0. 1. 1. 1.
      41. 41. 41. 223. 223. 223. 208. 208. 208. 41. 41. 41. 0. 0. 0. 0.
      0. 0. 2. 2. 2. 58. 58. 58. 236. 236. 236. 66. 66. 66. 0. 0. 0. 0.
      0. 0. 0. 0. 0. 0. 0. 0. 0. 0. 0. 4. 4. 4. 0. 0. 0. 0. 0. 0. 2. 2.
      2. 2. 2. 2. 166. 166. 166. 251. 251. 251. 55. 55. 55. 0. 0. 0. 0.
      0. 0. 133. 133. 133. 174. 174. 174. 71. 71. 71. 205. 205. 205. 62.
      62. 62. 0. 0. 0. 0. 0. 0. 0. 0. 0. 0. 0. 0. 0. 0. 0. 0. 0. 0. 1.
      1. 1. 0. 0. 0. 0. 0. 0. 62. 62. 62. 249. 249. 249. 167. 167. 167.
      2. 2. 2. 0. 0. 0. 4. 4. 4. 125. 125. 125. 239. 239. 239. 73. 73.
      73. 51. 51. 51. 10. 10. 10. 0. 0. 0. 0. 0. 0. 0. 0. 0. 0. 0. 0. 2.
      2. 2. 0. 0. 0. 1. 1. 1. 2. 2. 2. 0. 0. 0. 118. 118. 118. 255. 255.
      255. 65. 65. 65. 0. 0. 0. 0. 0. 0. 0. 0. 0. 8. 8. 8. 190. 190.
      190. 217. 217. 217. 32. 32. 32. 2. 2. 2. 0. 0. 0. 0. 0. 0. 0. 0.
      0. 0. 0. 0. 0. 0. 0. 1. 1. 1. 3. 3. 3. 0. 0. 0. 3. 3. 3. 196. 196.
      196. 227. 227. 227. 35. 35. 35. 0. 0. 0. 4. 4. 4. 0. 0. 0. 0. 0.
      0. 82. 82. 82. 253. 253. 253. 125. 125. 125. 0. 0. 0. 0. 0. 0. 0.
      0. 0. 0. 0. 0. 0. 0. 0. 0. 0. 0. 0. 0. 0. 0. 0. 0. 0. 0. 0. 20.
      20. 20. 244. 244. 244. 156. 156. 156. 0. 0. 0. 0. 0. 0. 0. 0. 0.
      0. 0. 0. 4. 4. 4. 32. 32. 32. 236. 236. 236. 165. 165. 165. 4. 4.
      4. 0. 0. 0. 0. 0. 0. 0. 0. 0. 0. 0. 0. 2. 2. 2. 0. 0. 0. 2. 2. 2.
      0. 0. 0. 63. 63. 63. 255. 255. 255. 116. 116. 116. 2. 2. 2. 3. 3.
      3. 1. 1. 1. 0. 0. 0. 0. 0. 0. 20. 20. 20. 229. 229. 229. 168. 168.
      168. 0. 0. 0. 0. 0. 0. 0. 0. 0. 0. 0. 0. 0. 0. 0. 0. 0. 0. 2. 2.
      2. 0. 0. 0. 3. 3. 3. 36. 36. 36. 246. 246. 246. 187. 187. 187. 6.
      6. 6. 0. 0. 0. 2. 2. 2. 1. 1. 1. 0. 0. 0. 26. 26. 26. 230. 230.
      230. 106. 106. 106. 1. 1. 1. 0. 0. 0. 0. 0. 0. 0. 0. 0. 0. 0. 0.
      0. 0. 0. 1. 1. 1. 0. 0. 0. 0. 0. 0. 5. 5. 5. 135. 135. 135. 255.
      255. 255. 122. 122. 122. 15. 15. 15. 0. 0. 0. 1. 1. 1. 9. 9. 9.
      144. 144. 144. 186. 186. 186. 21. 21. 21. 0. 0. 0. 0. 0. 0. 0. 0.
      0. 0. 0. 0. 0. 0. 0. 0. 0. 0. 2. 2. 2. 0. 0. 0. 1. 1. 1. 0. 0. 0.
      57. 57. 57. 209. 209. 209. 247. 247. 247. 192. 192. 192. 128. 128.
      128. 139. 139. 139. 231. 231. 231. 222. 222. 222. 88. 88. 88. 0.
      0. 0. 1. 1. 1. 0. 0. 0. 0. 0. 0. 0. 0. 0. 0. 0. 0. 0. 0. 0. 0. 0.
      0. 1. 1. 1. 0. 0. 0. 4. 4. 4. 0. 0. 0. 19. 19. 19. 112. 112. 112.
      210. 210. 210. 255. 255. 255. 229. 229. 229. 158. 158. 158. 42.
      42. 42. 1. 1. 1. 0. 0. 0. 0. 0. 0. 0. 0. 0. 0. 0. 0. 0. 0. 0. 0.
      0. 0. 0. 0. 0. 0. 0. 0. 3. 3. 3. 0. 0. 0. 0. 0. 0. 2. 2. 2. 0. 0.
      0. 0. 0. 0. 16. 16. 16. 34. 34. 34. 22. 22. 22. 8. 8. 8. 0. 0. 0.
      0. 0. 0. 1. 1. 1. 0. 0. 0. 0. 0. 0. 0. 0. 0. 0. 0. 0. 0. 0. 0. 1.
      1. 1. 0. 0. 0. 0. 0. 0. 1. 1. 1. 0. 0. 0. 1. 1. 1. 4. 4. 4. 0. 0.
      0. 1. 1. 1. 0. 0. 0. 2. 2. 2. 0. 0. 0. 0. 0. 0. 0. 0. 0. 1. 1. 1.
      2. 2. 2. 0. 0. 0. 0. 0. 0. 0. 0. 0. 0. 0. 0. 0. 0. 0. 4. 4. 4. 0.
      0. 0. 0. 0. 0. 1. 1. 1. 0. 0. 0. 0. 0. 0. 0. 0. 0. 3. 3. 3. 0. 0.
      0. 0. 0. 0. 2. 2. 2. 0. 0. 0. 3. 3. 3. 0. 0. 0. 0. 0. 0. 0. 0. 0.
      0. 0. 0. 0. 0. 0. 0. 0. 0.</_>
    <_>
      0. 0. 0. 1. 1. 1. 1. 1. 1. 0. 0. 0. 1. 1. 1. 0. 0. 0. 1. 1. 1. 0.
      0. 0. 0. 0. 0. 0. 0. 0. 0. 0. 0. 1. 1. 1. 1. 1. 1. 0. 0. 0. 0. 0.
      0. 1. 1. 1. 0. 0. 0. 2. 2. 2. 0. 0. 0. 3. 3. 3. 0. 0. 0. 0. 0. 0.
      1. 1. 1. 0. 0. 0. 1. 1. 1. 0. 0. 0. 4. 4. 4. 0. 0. 0. 0. 0. 0. 1.
      1. 1. 1. 1. 1. 1. 1. 1. 0. 0. 0. 3. 3. 3. 0. 0. 0. 0. 0. 0. 0. 0.
      0. 0. 0. 0. 0. 0. 0. 1. 1. 1. 4. 4. 4. 1. 1. 1. 0. 0. 0. 0. 0. 0.
      2. 2. 2. 0. 0. 0. 0. 0. 0. 0. 0. 0. 0. 0. 0. 0. 0. 0. 0. 0. 0. 0.
      0. 0. 0. 0. 0. 0. 0. 0. 1. 1. 1. 0. 0. 0. 1. 1. 1. 0. 0. 0. 0. 0.
      0. 0. 0. 0. 0. 0. 0. 3. 3. 3. 0. 0. 0. 0. 0. 0. 1. 1. 1. 0. 0. 0.
      0. 0. 0. 3. 3. 3. 1. 1. 1. 0. 0. 0. 61. 61. 61. 113. 113. 113.
      115. 115. 115. 106. 106. 106. 46. 46. 46. 0. 0. 0. 0. 0. 0. 2. 2.
      2. 0. 0. 0. 0. 0. 0. 1. 1. 1. 1. 1. 1. 0. 0. 0. 0. 0. 0. 1. 1. 1.
      68. 68. 68. 171. 171. 171. 106. 106. 106. 51. 51. 51. 167. 167.
      167. 208. 208. 208. 150. 150. 150. 140. 140. 140. 216. 216. 216.
      221. 221. 221. 43. 43. 43. 0. 0. 0. 1. 1. 1. 0. 0. 0. 1. 1. 1. 0.
      0. 0. 0. 0. 0. 0. 0. 0. 2. 2. 2. 46. 46. 46. 238. 238. 238. 221.
      221. 221. 242. 242. 242. 247. 247. 247. 168. 168. 168. 35. 35. 35.
      0. 0. 0. 0. 0. 0. 17. 17. 17. 151. 151. 151. 184. 184. 184. 21.
      21. 21. 0. 0. 0. 0. 0. 0. 1. 1. 1. 2. 2. 2. 0. 0. 0. 2. 2. 2. 0.
      0. 0. 124. 124. 124. 215. 215. 215. 29. 29. 29. 108. 108. 108.
      222. 222. 222. 67. 67. 67. 0. 0. 0. 2. 2. 2. 2. 2. 2. 1. 1. 1. 7.
      7. 7. 191. 191. 191. 86. 86. 86. 0. 0. 0. 0. 0. 0. 0. 0. 0. 0. 0.
      0. 3. 3. 3. 0. 0. 0. 12. 12. 12. 203. 203. 203. 130. 130. 130. 2.
      2. 2. 0. 0. 0. 41. 41. 41. 20. 20. 20. 0. 0. 0. 0. 0. 0. 0. 0. 0.
      0. 0. 0. 1. 1. 1. 105. 105. 105. 152. 152. 152. 6. 6. 6. 0. 0. 0.
      0. 0. 0. 0. 0. 0. 1. 1. 1. 1. 1. 1. 18. 18. 18. 195. 195. 195. 57.
      57. 57. 2. 2. 2. 0. 0. 0. 0. 0. 0. 1. 1. 1. 1. 1. 1. 0. 0. 0. 0.
      0. 0. 1. 1. 1. 0. 0. 0. 22. 22. 22. 175. 175. 175. 33. 33. 33. 2.
      2. 2. 0. 0. 0. 1. 1. 1. 0. 0. 0. 0. 0. 0. 17. 17. 17. 179. 179.
      179. 16. 16. 16. 0. 0. 0. 1. 1. 1. 0. 0. 0. 6. 6. 6. 0. 0. 0. 3.
      3. 3. 0. 0. 0. 1. 1. 1. 0. 0. 0. 9. 9. 9. 170. 170. 170. 67. 67.
      67. 0. 0. 0. 0. 0. 0. 0. 0. 0. 1. 1. 1. 2. 2. 2. 23. 23. 23. 174.
      174. 174. 14. 14. 14. 4. 4. 4. 0. 0. 0. 0. 0. 0. 0. 0. 0. 0. 0. 0.
      0. 0. 0. 0. 0. 0. 0. 0. 0. 0. 0. 0. 1. 1. 1. 156. 156. 156. 90.
      90. 90. 0. 0. 0. 0. 0. 0. 4. 4. 4. 0. 0. 0. 0. 0. 0. 21. 21. 21.
      187. 187. 187. 42. 42. 42. 0. 0. 0. 1. 1. 1. 0. 0. 0. 3. 3. 3. 3.
      3. 3. 2. 2. 2. 0. 0. 0. 1. 1. 1. 0. 0. 0. 12. 12. 12. 187. 187.
      187. 86. 86. 86. 0. 0. 0. 0. 0. 0. 0. 0. 0. 0. 0. 0. 2. 2. 2. 11.
      11. 11. 202. 202. 202. 92. 92. 92. 0. 0. 0. 0. 0. 0. 1. 1. 1. 0.
      0. 0. 0. 0. 0. 0. 0. 0. 0. 0. 0. 2. 2. 2. 0. 0. 0. 33. 33. 33.
      197. 197. 197. 41. 41. 41. 1. 1. 1. 3. 3. 3. 0. 0. 0. 0. 0. 0. 0.
      0. 0. 3. 3. 3. 128. 128. 128. 170. 170. 170. 1. 1. 1. 0. 0. 0. 0.
      0. 0. 4. 4. 4. 0. 0. 0. 3. 3. 3. 0. 0. 0. 0. 0. 0. 2. 2. 2. 90.
      90. 90. 204. 204. 204. 19. 19. 19. 0. 0. 0. 0. 0. 0. 2. 2. 2. 1.
      1. 1. 0. 0. 0. 0. 0. 0. 37. 37. 37. 229. 229. 229. 85. 85. 85. 2.
      2. 2. 0. 0. 0. 1. 1. 1. 0. 0. 0. 0. 0. 0. 6. 6. 6. 0. 0. 0. 9. 9.
      9. 191. 191. 191. 117. 117. 117. 1. 1. 1. 2. 2. 2. 0. 0. 0. 0. 0.
      0. 0. 0. 0. 1. 1. 1. 0. 0. 0. 0. 0. 0. 110. 110. 110. 223. 223.
      223. 88. 88. 88. 6. 6. 6. 0. 0. 0. 4. 4. 4. 0. 0. 0. 0. 0. 0. 20.
      20. 20. 180. 180. 180. 203. 203. 203. 32. 32. 32. 0. 0. 0. 1. 1.
      1. 0. 0. 0. 1. 1. 1. 1. 1. 1. 0. 0. 0. 1. 1. 1. 0. 0. 0. 5. 5. 5.
      97. 97. 97. 227. 227. 227. 178. 178. 178. 142. 142. 142. 105. 105.
      105. 80. 80. 80. 85. 85. 85. 188. 188. 188. 216. 216. 216. 62. 62.
      62. 0. 0. 0. 0. 0. 0. 0. 0. 0. 0. 0. 0. 0. 0. 0. 1. 1. 1. 0. 0. 0.
      2. 2. 2. 4. 4. 4. 0. 0. 0. 2. 2. 2. 29. 29. 29. 112. 112. 112.
      207. 207. 207. 219. 219. 219. 207. 207. 207. 201. 201. 201. 114.
      114. 114. 23. 23. 23. 0. 0. 0. 0. 0. 0. 0. 0. 0. 0. 0. 0. 0. 0. 0.
      0. 0. 0. 0. 0. 0. 0. 0. 0. 0. 0. 0. 0. 0. 0. 1. 1. 1. 0. 0. 0. 0.
      0. 0. 3. 3. 3. 0. 0. 0. 0. 0. 0. 3. 3. 3. 0. 0. 0. 0. 0. 0. 2. 2.
      2. 0. 0. 0. 0. 0. 0. 0. 0. 0. 0. 0. 0. 0. 0. 0. 1. 1. 1. 0. 0. 0.
      1. 1. 1. 3. 3. 3. 0. 0. 0. 0. 0. 0. 0. 0. 0. 3. 3. 3. 0. 0. 0. 1.
      1. 1. 1. 1. 1. 0. 0. 0. 0. 0. 0. 2. 2. 2. 0. 0. 0. 0. 0. 0. 0. 0.
      0. 0. 0. 0. 0. 0. 0. 0. 0. 0.</_>
    <_>
      2. 2. 2. 0. 0. 0. 0. 0. 0. 0. 0. 0. 1. 1. 1. 0. 0. 0. 0. 0. 0. 1.
      1. 1. 0. 0. 0. 2. 2. 2. 0. 0. 0. 3. 3. 3. 0. 0. 0. 1. 1. 1. 0. 0.
      0. 1. 1. 1. 0. 0. 0. 1. 1. 1. 0. 0. 0. 3. 3. 3. 0. 0. 0. 1. 1. 1.
      4. 4. 4. 0. 0. 0. 0. 0. 0. 0. 0. 0. 2. 2. 2. 1. 1. 1. 0. 0. 0. 0.
      0. 0. 1. 1. 1. 0. 0. 0. 2. 2. 2. 0. 0. 0. 0. 0. 0. 0. 0. 0. 1. 1.
      1. 2. 2. 2. 0. 0. 0. 0. 0. 0. 0. 0. 0. 1. 1. 1. 0. 0. 0. 4. 4. 4.
      0. 0. 0. 3. 3. 3. 0. 0. 0. 0. 0. 0. 0. 0. 0. 0. 0. 0. 2. 2. 2. 2.
      2. 2. 0. 0. 0. 1. 1. 1. 2. 2. 2. 0. 0. 0. 0. 0. 0. 0. 0. 0. 3. 3.
      3. 4. 4. 4. 3. 3. 3. 0. 0. 0. 0. 0. 0. 0. 0. 0. 0. 0. 0. 1. 1. 1.
      0. 0. 0. 2. 2. 2. 1. 1. 1. 0. 0. 0. 0. 0. 0. 2. 2. 2. 0. 0. 0. 3.
      3. 3. 0. 0. 0. 2. 2. 2. 2. 2. 2. 2. 2. 2. 0. 0. 0. 0. 0. 0. 0. 0.
      0. 1. 1. 1. 0. 0. 0. 0. 0. 0. 1. 1. 1. 2. 2. 2. 2. 2. 2. 1. 1. 1.
      1. 1. 1. 0. 0. 0. 7. 7. 7. 65. 65. 65. 161. 161. 161. 191. 191.
      191. 192. 192. 192. 113. 113. 113. 6. 6. 6. 0. 0. 0. 2. 2. 2. 0.
      0. 0. 2. 2. 2. 0. 0. 0. 4. 4. 4. 0. 0. 0. 0. 0. 0. 3. 3. 3. 80.
      80. 80. 147. 147. 147. 6. 6. 6. 45. 45. 45. 162. 162. 162. 253.
      253. 253. 252. 252. 252. 210. 210. 210. 216. 216. 216. 255. 255.
      255. 111. 111. 111. 4. 4. 4. 2. 2. 2. 0. 0. 0. 0. 0. 0. 0. 0. 0.
      3. 3. 3. 0. 0. 0. 0. 0. 0. 63. 63. 63. 242. 242. 242. 227. 227.
      227. 126. 126. 126. 238. 238. 238. 231. 231. 231. 112. 112. 112.
      73. 73. 73. 3. 3. 3. 26. 26. 26. 209. 209. 209. 195. 195. 195. 8.
      8. 8. 0. 0. 0. 3. 3. 3. 0. 0. 0. 3. 3. 3. 0. 0. 0. 0. 0. 0. 0. 0.
      0. 143. 143. 143. 248. 248. 248. 184. 184. 184. 244. 244. 244.
      180. 180. 180. 51. 51. 51. 0. 0. 0. 2. 2. 2. 1. 1. 1. 0. 0. 0.
      129. 129. 129. 245. 245. 245. 36. 36. 36. 1. 1. 1. 0. 0. 0. 0. 0.
      0. 0. 0. 0. 1. 1. 1. 0. 0. 0. 41. 41. 41. 240. 240. 240. 154. 154.
      154. 218. 218. 218. 126. 126. 126. 0. 0. 0. 0. 0. 0. 0. 0. 0. 2.
      2. 2. 0. 0. 0. 0. 0. 0. 51. 51. 51. 236. 236. 236. 96. 96. 96. 0.
      0. 0. 0. 0. 0. 2. 2. 2. 3. 3. 3. 1. 1. 1. 4. 4. 4. 167. 167. 167.
      223. 223. 223. 52. 52. 52. 184. 184. 184. 25. 25. 25. 1. 1. 1. 0.
      0. 0. 1. 1. 1. 0. 0. 0. 1. 1. 1. 3. 3. 3. 24. 24. 24. 206. 206.
      206. 148. 148. 148. 0. 0. 0. 0. 0. 0. 0. 0. 0. 2. 2. 2. 0. 0. 0.
      35. 35. 35. 225. 225. 225. 158. 158. 158. 0. 0. 0. 113. 113. 113.
      116. 116. 116. 0. 0. 0. 5. 5. 5. 0. 0. 0. 0. 0. 0. 0. 0. 0. 0. 0.
      0. 0. 0. 0. 166. 166. 166. 169. 169. 169. 0. 0. 0. 2. 2. 2. 4. 4.
      4. 0. 0. 0. 3. 3. 3. 75. 75. 75. 246. 246. 246. 113. 113. 113. 0.
      0. 0. 0. 0. 0. 35. 35. 35. 8. 8. 8. 0. 0. 0. 1. 1. 1. 0. 0. 0. 4.
      4. 4. 2. 2. 2. 7. 7. 7. 182. 182. 182. 134. 134. 134. 3. 3. 3. 1.
      1. 1. 1. 1. 1. 0. 0. 0. 0. 0. 0. 109. 109. 109. 255. 255. 255. 80.
      80. 80. 0. 0. 0. 0. 0. 0. 0. 0. 0. 2. 2. 2. 1. 1. 1. 1. 1. 1. 0.
      0. 0. 0. 0. 0. 0. 0. 0. 30. 30. 30. 198. 198. 198. 53. 53. 53. 0.
      0. 0. 0. 0. 0. 0. 0. 0. 6. 6. 6. 0. 0. 0. 106. 106. 106. 255. 255.
      255. 43. 43. 43. 0. 0. 0. 1. 1. 1. 2. 2. 2. 2. 2. 2. 0. 0. 0. 0.
      0. 0. 1. 1. 1. 1. 1. 1. 1. 1. 1. 124. 124. 124. 197. 197. 197. 16.
      16. 16. 0. 0. 0. 0. 0. 0. 0. 0. 0. 0. 0. 0. 0. 0. 0. 112. 112.
      112. 255. 255. 255. 89. 89. 89. 0. 0. 0. 0. 0. 0. 0. 0. 0. 0. 0.
      0. 1. 1. 1. 2. 2. 2. 0. 0. 0. 2. 2. 2. 68. 68. 68. 229. 229. 229.
      99. 99. 99. 1. 1. 1. 0. 0. 0. 1. 1. 1. 2. 2. 2. 0. 0. 0. 0. 0. 0.
      40. 40. 40. 221. 221. 221. 184. 184. 184. 8. 8. 8. 0. 0. 0. 0. 0.
      0. 0. 0. 0. 1. 1. 1. 0. 0. 0. 30. 30. 30. 116. 116. 116. 218. 218.
      218. 120. 120. 120. 1. 1. 1. 2. 2. 2. 0. 0. 0. 0. 0. 0. 2. 2. 2.
      0. 0. 0. 0. 0. 0. 2. 2. 2. 124. 124. 124. 255. 255. 255. 163. 163.
      163. 59. 59. 59. 3. 3. 3. 0. 0. 0. 17. 17. 17. 122. 122. 122. 196.
      196. 196. 169. 169. 169. 79. 79. 79. 3. 3. 3. 0. 0. 0. 0. 0. 0. 0.
      0. 0. 0. 0. 0. 0. 0. 0. 0. 0. 0. 3. 3. 3. 1. 1. 1. 2. 2. 2. 115.
      115. 115. 226. 226. 226. 231. 231. 231. 214. 214. 214. 184. 184.
      184. 128. 128. 128. 104. 104. 104. 36. 36. 36. 5. 5. 5. 0. 0. 0.
      1. 1. 1. 0. 0. 0. 0. 0. 0. 0. 0. 0. 0. 0. 0. 1. 1. 1. 1. 1. 1. 0.
      0. 0. 0. 0. 0. 1. 1. 1. 5. 5. 5. 21. 21. 21. 79. 79. 79. 122. 122.
      122. 106. 106. 106. 1. 1. 1. 0. 0. 0. 4. 4. 4. 0. 0. 0. 3. 3. 3.
      0. 0. 0. 0. 0. 0. 0. 0. 0. 0. 0. 0. 0. 0. 0. 0. 0. 0. 0. 0. 0. 0.
      0. 0. 3. 3. 3. 0. 0. 0. 0. 0. 0. 2. 2. 2. 0. 0. 0. 1. 1. 1. 3. 3.
      3. 0. 0. 0. 1. 1. 1. 0. 0. 0. 1. 1. 1. 0. 0. 0. 2. 2. 2. 0. 0. 0.
      0. 0. 0. 0. 0. 0. 0. 0. 0.</_>
    <_>
      1. 1. 1. 0. 0. 0. 1. 1. 1. 0. 0. 0. 3. 3. 3. 0. 0. 0. 0. 0. 0. 1.
      1. 1. 1. 1. 1. 0. 0. 0. 0. 0. 0. 0. 0. 0. 1. 1. 1. 1. 1. 1. 0. 0.
      0. 0. 0. 0. 0. 0. 0. 0. 0. 0. 0. 0. 0. 0. 0. 0. 0. 0. 0. 0. 0. 0.
      3. 3. 3. 0. 0. 0. 0. 0. 0. 1. 1. 1. 1. 1. 1. 0. 0. 0. 1. 1. 1. 1.
      1. 1. 0. 0. 0. 0. 0. 0. 0. 0. 0. 1. 1. 1. 0. 0. 0. 0. 0. 0. 0. 0.
      0. 0. 0. 0. 0. 0. 0. 0. 0. 0. 0. 0. 0. 0. 0. 0. 0. 0. 0. 0. 0. 0.
      0. 0. 0. 0. 0. 0. 0. 0. 0. 0. 0. 0. 0. 0. 0. 1. 1. 1. 3. 3. 3. 22.
      22. 22. 28. 28. 28. 0. 0. 0. 1. 1. 1. 1. 1. 1. 0. 0. 0. 0. 0. 0.
      0. 0. 0. 0. 0. 0. 0. 0. 0. 1. 1. 1. 0. 0. 0. 0. 0. 0. 1. 1. 1. 0.
      0. 0. 1. 1. 1. 3. 3. 3. 0. 0. 0. 0. 0. 0. 0. 0. 0. 163. 163. 163.
      209. 209. 209. 6. 6. 6. 2. 2. 2. 0. 0. 0. 0. 0. 0. 0. 0. 0. 0. 0.
      0. 0. 0. 0. 1. 1. 1. 1. 1. 1. 0. 0. 0. 0. 0. 0. 1. 1. 1. 0. 0. 0.
      1. 1. 1. 0. 0. 0. 2. 2. 2. 19. 19. 19. 90. 90. 90. 205. 205. 205.
      249. 249. 249. 201. 201. 201. 79. 79. 79. 1. 1. 1. 0. 0. 0. 0. 0.
      0. 0. 0. 0. 0. 0. 0. 1. 1. 1. 0. 0. 0. 2. 2. 2. 0. 0. 0. 0. 0. 0.
      1. 1. 1. 0. 0. 0. 5. 5. 5. 65. 65. 65. 194. 194. 194. 172. 172.
      172. 102. 102. 102. 205. 205. 205. 254. 254. 254. 75. 75. 75. 2.
      2. 2. 0. 0. 0. 0. 0. 0. 0. 0. 0. 0. 0. 0. 1. 1. 1. 0. 0. 0. 1. 1.
      1. 0. 0. 0. 0. 0. 0. 1. 1. 1. 6. 6. 6. 106. 106. 106. 231. 231.
      231. 131. 131. 131. 0. 0. 0. 2. 2. 2. 160. 160. 160. 240. 240.
      240. 80. 80. 80. 0. 0. 0. 0. 0. 0. 0. 0. 0. 0. 0. 0. 0. 0. 0. 0.
      0. 0. 1. 1. 1. 2. 2. 2. 0. 0. 0. 0. 0. 0. 0. 0. 0. 32. 32. 32.
      242. 242. 242. 158. 158. 158. 0. 0. 0. 1. 1. 1. 0. 0. 0. 104. 104.
      104. 255. 255. 255. 106. 106. 106. 2. 2. 2. 0. 0. 0. 0. 0. 0. 0.
      0. 0. 0. 0. 0. 2. 2. 2. 0. 0. 0. 0. 0. 0. 1. 1. 1. 1. 1. 1. 15.
      15. 15. 149. 149. 149. 191. 191. 191. 30. 30. 30. 1. 1. 1. 0. 0.
      0. 0. 0. 0. 19. 19. 19. 222. 222. 222. 106. 106. 106. 0. 0. 0. 0.
      0. 0. 0. 0. 0. 0. 0. 0. 0. 0. 0. 0. 0. 0. 0. 0. 0. 1. 1. 1. 0. 0.
      0. 0. 0. 0. 119. 119. 119. 255. 255. 255. 77. 77. 77. 0. 0. 0. 0.
      0. 0. 2. 2. 2. 1. 1. 1. 39. 39. 39. 242. 242. 242. 130. 130. 130.
      1. 1. 1. 0. 0. 0. 0. 0. 0. 0. 0. 0. 0. 0. 0. 1. 1. 1. 0. 0. 0. 0.
      0. 0. 2. 2. 2. 1. 1. 1. 194. 194. 194. 212. 212. 212. 23. 23. 23.
      2. 2. 2. 5. 5. 5. 0. 0. 0. 0. 0. 0. 61. 61. 61. 255. 255. 255.
      106. 106. 106. 1. 1. 1. 0. 0. 0. 0. 0. 0. 0. 0. 0. 0. 0. 0. 1. 1.
      1. 2. 2. 2. 0. 0. 0. 1. 1. 1. 0. 0. 0. 196. 196. 196. 159. 159.
      159. 0. 0. 0. 0. 0. 0. 0. 0. 0. 3. 3. 3. 2. 2. 2. 78. 78. 78. 252.
      252. 252. 105. 105. 105. 0. 0. 0. 0. 0. 0. 0. 0. 0. 0. 0. 0. 0. 0.
      0. 1. 1. 1. 0. 0. 0. 1. 1. 1. 1. 1. 1. 6. 6. 6. 197. 197. 197.
      146. 146. 146. 0. 0. 0. 2. 2. 2. 1. 1. 1. 0. 0. 0. 0. 0. 0. 82.
      82. 82. 243. 243. 243. 102. 102. 102. 0. 0. 0. 0. 0. 0. 0. 0. 0.
      0. 0. 0. 0. 0. 0. 0. 0. 0. 8. 8. 8. 0. 0. 0. 1. 1. 1. 2. 2. 2.
      191. 191. 191. 170. 170. 170. 5. 5. 5. 0. 0. 0. 0. 0. 0. 1. 1. 1.
      40. 40. 40. 234. 234. 234. 198. 198. 198. 30. 30. 30. 0. 0. 0. 0.
      0. 0. 0. 0. 0. 0. 0. 0. 0. 0. 0. 0. 0. 0. 0. 0. 0. 1. 1. 1. 0. 0.
      0. 6. 6. 6. 193. 193. 193. 232. 232. 232. 37. 37. 37. 0. 0. 0. 2.
      2. 2. 9. 9. 9. 166. 166. 166. 242. 242. 242. 90. 90. 90. 0. 0. 0.
      2. 2. 2. 0. 0. 0. 0. 0. 0. 0. 0. 0. 0. 0. 0. 2. 2. 2. 0. 0. 0. 2.
      2. 2. 1. 1. 1. 0. 0. 0. 124. 124. 124. 254. 254. 254. 219. 219.
      219. 113. 113. 113. 83. 83. 83. 194. 194. 194. 217. 217. 217. 87.
      87. 87. 2. 2. 2. 0. 0. 0. 0. 0. 0. 0. 0. 0. 0. 0. 0. 0. 0. 0. 0.
      0. 0. 1. 1. 1. 0. 0. 0. 2. 2. 2. 1. 1. 1. 0. 0. 0. 11. 11. 11.
      118. 118. 118. 247. 247. 247. 240. 240. 240. 140. 140. 140. 101.
      101. 101. 32. 32. 32. 0. 0. 0. 0. 0. 0. 0. 0. 0. 3. 3. 3. 0. 0. 0.
      0. 0. 0. 0. 0. 0. 0. 0. 0. 0. 0. 0. 1. 1. 1. 0. 0. 0. 0. 0. 0. 0.
      0. 0. 0. 0. 0. 6. 6. 6. 30. 30. 30. 28. 28. 28. 0. 0. 0. 3. 3. 3.
      0. 0. 0. 1. 1. 1. 1. 1. 1. 2. 2. 2. 0. 0. 0. 0. 0. 0. 0. 0. 0. 0.
      0. 0. 0. 0. 0. 0. 0. 0. 3. 3. 3. 1. 1. 1. 0. 0. 0. 0. 0. 0. 1. 1.
      1. 0. 0. 0. 0. 0. 0. 1. 1. 1. 1. 1. 1. 0. 0. 0. 0. 0. 0. 0. 0. 0.
      0. 0. 0. 2. 2. 2. 1. 1. 1. 0. 0. 0. 0. 0. 0. 0. 0. 0. 0. 0. 0. 2.
      2. 2. 0. 0. 0. 0. 0. 0. 1. 1. 1. 3. 3. 3. 2. 2. 2. 0. 0. 0. 2. 2.
      2. 0. 0. 0. 3. 3. 3. 0. 0. 0. 0. 0. 0. 1. 1. 1. 2. 2. 2. 0. 0. 0.
      0. 0. 0. 0. 0. 0. 0. 0. 0. 0. 0. 0. 0. 0. 0.</_>
    <_>
      2. 2. 2. 0. 0. 0. 0. 0. 0. 0. 0. 0. 1. 1. 1. 0. 0. 0. 0. 0. 0. 0.
      0. 0. 0. 0. 0. 0. 0. 0. 2. 2. 2. 0. 0. 0. 1. 1. 1. 0. 0. 0. 3. 3.
      3. 0. 0. 0. 0. 0. 0. 0. 0. 0. 1. 1. 1. 0. 0. 0. 0. 0. 0. 0. 0. 0.
      2. 2. 2. 0. 0. 0. 0. 0. 0. 2. 2. 2. 2. 2. 2. 1. 1. 1. 2. 2. 2. 3.
      3. 3. 0. 0. 0. 0. 0. 0. 2. 2. 2. 0. 0. 0. 1. 1. 1. 0. 0. 0. 2. 2.
      2. 0. 0. 0. 2. 2. 2. 1. 1. 1. 0. 0. 0. 2. 2. 2. 0. 0. 0. 0. 0. 0.
      1. 1. 1. 0. 0. 0. 0. 0. 0. 0. 0. 0. 0. 0. 0. 0. 0. 0. 0. 0. 0. 0.
      0. 0. 0. 0. 0. 1. 1. 1. 0. 0. 0. 3. 3. 3. 0. 0. 0. 0. 0. 0. 0. 0.
      0. 3. 3. 3. 0. 0. 0. 1. 1. 1. 0. 0. 0. 3. 3. 3. 0. 0. 0. 1. 1. 1.
      4. 4. 4. 2. 2. 2. 0. 0. 0. 0. 0. 0. 5. 5. 5. 1. 1. 1. 0. 0. 0. 0.
      0. 0. 0. 0. 0. 0. 0. 0. 0. 0. 0. 4. 4. 4. 1. 1. 1. 0. 0. 0. 1. 1.
      1. 0. 0. 0. 0. 0. 0. 0. 0. 0. 3. 3. 3. 0. 0. 0. 0. 0. 0. 0. 0. 0.
      0. 0. 0. 1. 1. 1. 0. 0. 0. 0. 0. 0. 2. 2. 2. 0. 0. 0. 0. 0. 0. 1.
      1. 1. 3. 3. 3. 0. 0. 0. 0. 0. 0. 0. 0. 0. 0. 0. 0. 0. 0. 0. 2. 2.
      2. 0. 0. 0. 0. 0. 0. 3. 3. 3. 5. 5. 5. 60. 60. 60. 98. 98. 98.
      126. 126. 126. 173. 173. 173. 156. 156. 156. 92. 92. 92. 42. 42.
      42. 2. 2. 2. 0. 0. 0. 0. 0. 0. 4. 4. 4. 0. 0. 0. 1. 1. 1. 0. 0. 0.
      0. 0. 0. 0. 0. 0. 2. 2. 2. 6. 6. 6. 8. 8. 8. 149. 149. 149. 251.
      251. 251. 254. 254. 254. 254. 254. 254. 255. 255. 255. 255. 255.
      255. 255. 255. 255. 235. 235. 235. 135. 135. 135. 80. 80. 80. 24.
      24. 24. 0. 0. 0. 1. 1. 1. 0. 0. 0. 1. 1. 1. 0. 0. 0. 2. 2. 2. 1.
      1. 1. 0. 0. 0. 141. 141. 141. 255. 255. 255. 247. 247. 247. 191.
      191. 191. 195. 195. 195. 179. 179. 179. 165. 165. 165. 123. 123.
      123. 185. 185. 185. 253. 253. 253. 254. 254. 254. 185. 185. 185.
      14. 14. 14. 0. 0. 0. 1. 1. 1. 2. 2. 2. 0. 0. 0. 0. 0. 0. 4. 4. 4.
      125. 125. 125. 254. 254. 254. 255. 255. 255. 219. 219. 219. 35.
      35. 35. 0. 0. 0. 1. 1. 1. 0. 0. 0. 0. 0. 0. 4. 4. 4. 147. 147.
      147. 255. 255. 255. 160. 160. 160. 5. 5. 5. 0. 0. 0. 0. 0. 0. 0.
      0. 0. 0. 0. 0. 3. 3. 3. 95. 95. 95. 254. 254. 254. 163. 163. 163.
      119. 119. 119. 121. 121. 121. 28. 28. 28. 0. 0. 0. 0. 0. 0. 1. 1.
      1. 0. 0. 0. 0. 0. 0. 65. 65. 65. 251. 251. 251. 126. 126. 126. 0.
      0. 0. 1. 1. 1. 4. 4. 4. 1. 1. 1. 1. 1. 1. 0. 0. 0. 137. 137. 137.
      255. 255. 255. 66. 66. 66. 0. 0. 0. 0. 0. 0. 3. 3. 3. 0. 0. 0. 6.
      6. 6. 0. 0. 0. 0. 0. 0. 0. 0. 0. 3. 3. 3. 184. 184. 184. 225. 225.
      225. 24. 24. 24. 0. 0. 0. 1. 1. 1. 0. 0. 0. 0. 0. 0. 11. 11. 11.
      185. 185. 185. 213. 213. 213. 7. 7. 7. 0. 0. 0. 3. 3. 3. 0. 0. 0.
      2. 2. 2. 0. 0. 0. 3. 3. 3. 4. 4. 4. 0. 0. 0. 1. 1. 1. 177. 177.
      177. 250. 250. 250. 33. 33. 33. 3. 3. 3. 0. 0. 0. 3. 3. 3. 0. 0.
      0. 27. 27. 27. 228. 228. 228. 174. 174. 174. 2. 2. 2. 0. 0. 0. 0.
      0. 0. 0. 0. 0. 3. 3. 3. 1. 1. 1. 0. 0. 0. 0. 0. 0. 0. 0. 0. 67.
      67. 67. 253. 253. 253. 177. 177. 177. 8. 8. 8. 0. 0. 0. 0. 0. 0.
      0. 0. 0. 2. 2. 2. 28. 28. 28. 243. 243. 243. 173. 173. 173. 9. 9.
      9. 3. 3. 3. 0. 0. 0. 1. 1. 1. 0. 0. 0. 0. 0. 0. 2. 2. 2. 1. 1. 1.
      24. 24. 24. 215. 215. 215. 233. 233. 233. 39. 39. 39. 0. 0. 0. 1.
      1. 1. 0. 0. 0. 2. 2. 2. 0. 0. 0. 3. 3. 3. 162. 162. 162. 254. 254.
      254. 112. 112. 112. 0. 0. 0. 3. 3. 3. 0. 0. 0. 1. 1. 1. 1. 1. 1.
      2. 2. 2. 36. 36. 36. 181. 181. 181. 255. 255. 255. 154. 154. 154.
      1. 1. 1. 0. 0. 0. 0. 0. 0. 5. 5. 5. 0. 0. 0. 0. 0. 0. 2. 2. 2. 48.
      48. 48. 194. 194. 194. 193. 193. 193. 64. 64. 64. 0. 0. 0. 1. 1.
      1. 0. 0. 0. 23. 23. 23. 94. 94. 94. 186. 186. 186. 214. 214. 214.
      189. 189. 189. 20. 20. 20. 0. 0. 0. 2. 2. 2. 0. 0. 0. 1. 1. 1. 0.
      0. 0. 1. 1. 1. 0. 0. 0. 1. 1. 1. 15. 15. 15. 30. 30. 30. 24. 24.
      24. 7. 7. 7. 0. 0. 0. 3. 3. 3. 20. 20. 20. 32. 32. 32. 27. 27. 27.
      21. 21. 21. 14. 14. 14. 1. 1. 1. 0. 0. 0. 0. 0. 0. 0. 0. 0. 0. 0.
      0. 1. 1. 1. 1. 1. 1. 0. 0. 0. 0. 0. 0. 0. 0. 0. 1. 1. 1. 0. 0. 0.
      0. 0. 0. 0. 0. 0. 0. 0. 0. 0. 0. 0. 2. 2. 2. 0. 0. 0. 0. 0. 0. 2.
      2. 2. 0. 0. 0. 0. 0. 0. 0. 0. 0. 0. 0. 0. 0. 0. 0. 0. 0. 0. 0. 0.
      0. 0. 0. 0. 1. 1. 1. 0. 0. 0. 0. 0. 0. 0. 0. 0. 2. 2. 2. 2. 2. 2.
      0. 0. 0. 1. 1. 1. 1. 1. 1. 0. 0. 0. 0. 0. 0. 2. 2. 2. 0. 0. 0. 0.
      0. 0. 0. 0. 0. 0. 0. 0. 0. 0. 0. 0. 0. 0. 0. 0. 0. 0. 0. 0. 0. 0.
      0. 1. 1. 1. 3. 3. 3. 2. 2. 2. 0. 0. 0. 0. 0. 0. 0. 0. 0. 0. 0. 0.
      0. 0. 0. 0. 0. 0. 0. 0. 0. 0. 0. 0. 0. 0. 0. 0. 0. 0. 0. 0. 0. 0.
      0. 0. 0. 0. 0.</_>
    <_>
      0. 0. 0. 0. 0. 0. 1. 1. 1. 1. 1. 1. 0. 0. 0. 1. 1. 1. 0. 0. 0. 0.
      0. 0. 0. 0. 0. 0. 0. 0. 2. 2. 2. 0. 0. 0. 2. 2. 2. 0. 0. 0. 0. 0.
      0. 0. 0. 0. 0. 0. 0. 0. 0. 0. 0. 0. 0. 0. 0. 0. 0. 0. 0. 2. 2. 2.
      0. 0. 0. 0. 0. 0. 0. 0. 0. 1. 1. 1. 0. 0. 0. 0. 0. 0. 0. 0. 0. 3.
      3. 3. 0. 0. 0. 0. 0. 0. 4. 4. 4. 0. 0. 0. 2. 2. 2. 0. 0. 0. 0. 0.
      0. 0. 0. 0. 0. 0. 0. 0. 0. 0. 3. 3. 3. 0. 0. 0. 0. 0. 0. 2. 2. 2.
      0. 0. 0. 0. 0. 0. 6. 6. 6. 0. 0. 0. 3. 3. 3. 0. 0. 0. 0. 0. 0. 29.
      29. 29. 22. 22. 22. 0. 0. 0. 0. 0. 0. 0. 0. 0. 0. 0. 0. 0. 0. 0.
      0. 0. 0. 0. 0. 0. 1. 1. 1. 0. 0. 0. 4. 4. 4. 0. 0. 0. 0. 0. 0. 2.
      2. 2. 0. 0. 0. 0. 0. 0. 0. 0. 0. 32. 32. 32. 120. 120. 120. 173.
      173. 173. 192. 192. 192. 106. 106. 106. 1. 1. 1. 0. 0. 0. 0. 0. 0.
      0. 0. 0. 0. 0. 0. 0. 0. 0. 0. 0. 0. 1. 1. 1. 0. 0. 0. 4. 4. 4. 0.
      0. 0. 0. 0. 0. 0. 0. 0. 3. 3. 3. 114. 114. 114. 141. 141. 141. 65.
      65. 65. 25. 25. 25. 87. 87. 87. 204. 204. 204. 39. 39. 39. 0. 0.
      0. 0. 0. 0. 0. 0. 0. 0. 0. 0. 0. 0. 0. 0. 0. 0. 1. 1. 1. 1. 1. 1.
      0. 0. 0. 3. 3. 3. 1. 1. 1. 1. 1. 1. 100. 100. 100. 215. 215. 215.
      188. 188. 188. 0. 0. 0. 3. 3. 3. 0. 0. 0. 170. 170. 170. 103. 103.
      103. 0. 0. 0. 0. 0. 0. 0. 0. 0. 0. 0. 0. 0. 0. 0. 1. 1. 1. 0. 0.
      0. 5. 5. 5. 0. 0. 0. 0. 0. 0. 3. 3. 3. 85. 85. 85. 138. 138. 138.
      27. 27. 27. 51. 51. 51. 5. 5. 5. 1. 1. 1. 1. 1. 1. 121. 121. 121.
      158. 158. 158. 0. 0. 0. 0. 0. 0. 0. 0. 0. 0. 0. 0. 0. 0. 0. 2. 2.
      2. 0. 0. 0. 0. 0. 0. 0. 0. 0. 3. 3. 3. 27. 27. 27. 157. 157. 157.
      33. 33. 33. 0. 0. 0. 3. 3. 3. 0. 0. 0. 0. 0. 0. 0. 0. 0. 91. 91.
      91. 175. 175. 175. 5. 5. 5. 0. 0. 0. 0. 0. 0. 0. 0. 0. 0. 0. 0. 0.
      0. 0. 2. 2. 2. 0. 0. 0. 2. 2. 2. 0. 0. 0. 93. 93. 93. 97. 97. 97.
      0. 0. 0. 1. 1. 1. 0. 0. 0. 1. 1. 1. 0. 0. 0. 1. 1. 1. 65. 65. 65.
      158. 158. 158. 6. 6. 6. 0. 0. 0. 0. 0. 0. 0. 0. 0. 0. 0. 0. 0. 0.
      0. 2. 2. 2. 1. 1. 1. 0. 0. 0. 10. 10. 10. 148. 148. 148. 41. 41.
      41. 0. 0. 0. 0. 0. 0. 0. 0. 0. 1. 1. 1. 2. 2. 2. 0. 0. 0. 68. 68.
      68. 155. 155. 155. 6. 6. 6. 0. 0. 0. 0. 0. 0. 0. 0. 0. 0. 0. 0. 2.
      2. 2. 0. 0. 0. 0. 0. 0. 4. 4. 4. 13. 13. 13. 170. 170. 170. 0. 0.
      0. 1. 1. 1. 0. 0. 0. 0. 0. 0. 1. 1. 1. 0. 0. 0. 5. 5. 5. 61. 61.
      61. 188. 188. 188. 12. 12. 12. 0. 0. 0. 0. 0. 0. 0. 0. 0. 0. 0. 0.
      0. 0. 0. 3. 3. 3. 1. 1. 1. 0. 0. 0. 20. 20. 20. 159. 159. 159. 1.
      1. 1. 0. 0. 0. 0. 0. 0. 3. 3. 3. 1. 1. 1. 2. 2. 2. 0. 0. 0. 90.
      90. 90. 212. 212. 212. 7. 7. 7. 0. 0. 0. 0. 0. 0. 0. 0. 0. 0. 0.
      0. 0. 0. 0. 0. 0. 0. 0. 0. 0. 1. 1. 1. 18. 18. 18. 162. 162. 162.
      2. 2. 2. 0. 0. 0. 0. 0. 0. 0. 0. 0. 0. 0. 0. 0. 0. 0. 3. 3. 3.
      137. 137. 137. 138. 138. 138. 0. 0. 0. 0. 0. 0. 0. 0. 0. 0. 0. 0.
      0. 0. 0. 2. 2. 2. 0. 0. 0. 2. 2. 2. 0. 0. 0. 14. 14. 14. 157. 157.
      157. 0. 0. 0. 1. 1. 1. 3. 3. 3. 0. 0. 0. 1. 1. 1. 0. 0. 0. 29. 29.
      29. 212. 212. 212. 62. 62. 62. 0. 0. 0. 0. 0. 0. 0. 0. 0. 0. 0. 0.
      0. 0. 0. 0. 0. 0. 0. 0. 0. 0. 0. 0. 1. 1. 1. 15. 15. 15. 194. 194.
      194. 37. 37. 37. 0. 0. 0. 0. 0. 0. 0. 0. 0. 1. 1. 1. 37. 37. 37.
      181. 181. 181. 137. 137. 137. 6. 6. 6. 0. 0. 0. 0. 0. 0. 0. 0. 0.
      0. 0. 0. 0. 0. 0. 0. 0. 0. 0. 0. 0. 1. 1. 1. 0. 0. 0. 0. 0. 0.
      136. 136. 136. 181. 181. 181. 68. 68. 68. 58. 58. 58. 79. 79. 79.
      148. 148. 148. 206. 206. 206. 136. 136. 136. 1. 1. 1. 0. 0. 0. 0.
      0. 0. 0. 0. 0. 0. 0. 0. 0. 0. 0. 0. 0. 0. 1. 1. 1. 0. 0. 0. 1. 1.
      1. 0. 0. 0. 0. 0. 0. 24. 24. 24. 167. 167. 167. 227. 227. 227.
      205. 205. 205. 200. 200. 200. 150. 150. 150. 79. 79. 79. 1. 1. 1.
      0. 0. 0. 2. 2. 2. 0. 0. 0. 0. 0. 0. 0. 0. 0. 0. 0. 0. 0. 0. 0. 0.
      0. 0. 1. 1. 1. 0. 0. 0. 0. 0. 0. 0. 0. 0. 0. 0. 0. 5. 5. 5. 27.
      27. 27. 26. 26. 26. 12. 12. 12. 0. 0. 0. 4. 4. 4. 0. 0. 0. 2. 2.
      2. 1. 1. 1. 0. 0. 0. 0. 0. 0. 0. 0. 0. 0. 0. 0. 0. 0. 0. 0. 0. 0.
      1. 1. 1. 0. 0. 0. 0. 0. 0. 3. 3. 3. 4. 4. 4. 0. 0. 0. 4. 4. 4. 0.
      0. 0. 0. 0. 0. 3. 3. 3. 2. 2. 2. 0. 0. 0. 0. 0. 0. 1. 1. 1. 0. 0.
      0. 0. 0. 0. 0. 0. 0. 0. 0. 0. 0. 0. 0. 1. 1. 1. 0. 0. 0. 1. 1. 1.
      0. 0. 0. 0. 0. 0. 0. 0. 0. 5. 5. 5. 0. 0. 0. 2. 2. 2. 0. 0. 0. 0.
      0. 0. 0. 0. 0. 1. 1. 1. 0. 0. 0. 0. 0. 0. 0. 0. 0. 0. 0. 0. 0. 0.
      0. 0. 0. 0. 0. 0. 0.</_></support_vectors>
  <decision_functions>
    <_>
      <sv_count>19</sv_count>
      <rho>1.4747054302699245e+00</rho>
      <alpha>
        2.5340971220687951e-03 3.2024161805835978e-04
        1.5681080635731724e-02 9.4260125845883164e-04
        2.4065859638124718e-03 1.7197181236837987e-03
        3.4291592657779394e-05 2.6895479780838567e-04
        3.4766272890081047e-03 1.6012228768438636e-03
        -2.3524341869684754e-04 -5.5995871258857294e-03
        -4.3071702335972101e-03 -1.2388842092710404e-03
        -3.3643703121803252e-03 -8.2465778801124098e-03
        -8.2695710488015807e-04 -2.0868842283073446e-03
        -3.0797467652010505e-03</alpha>
      <index>
        9 10 11 12 13 14 15 16 17 18 0 1 2 3 4 5 6 7 8</index></_></decision_functions></opencv_ml_svm>
</opencv_storage>
